{"learner":{"attributes":{"scikit_learn":"{\"_estimator_type\": \"regressor\"}"},"feature_names":[],"feature_types":[],"gradient_booster":{"model":{"gbtree_model_param":{"num_parallel_tree":"1","num_trees":"400"},"iteration_indptr":[0,1,2,3,4,5,6,7,8,9,10,11,12,13,14,15,16,17,18,19,20,21,22,23,24,25,26,27,28,29,30,31,32,33,34,35,36,37,38,39,40,41,42,43,44,45,46,47,48,49,50,51,52,53,54,55,56,57,58,59,60,61,62,63,64,65,66,67,68,69,70,71,72,73,74,75,76,77,78,79,80,81,82,83,84,85,86,87,88,89,90,91,92,93,94,95,96,97,98,99,100,101,102,103,104,105,106,107,108,109,110,111,112,113,114,115,116,117,118,119,120,121,122,123,124,125,126,127,128,129,130,131,132,133,134,135,136,137,138,139,140,141,142,143,144,145,146,147,148,149,150,151,152,153,154,155,156,157,158,159,160,161,162,163,164,165,166,167,168,169,170,171,172,173,174,175,176,177,178,179,180,181,182,183,184,185,186,187,188,189,190,191,192,193,194,195,196,197,198,199,200,201,202,203,204,205,206,207,208,209,210,211,212,213,214,215,216,217,218,219,220,221,222,223,224,225,226,227,228,229,230,231,232,233,234,235,236,237,238,239,240,241,242,243,244,245,246,247,248,249,250,251,252,253,254,255,256,257,258,259,260,261,262,263,264,265,266,267,268,269,270,271,272,273,274,275,276,277,278,279,280,281,282,283,284,285,286,287,288,289,290,291,292,293,294,295,296,297,298,299,300,301,302,303,304,305,306,307,308,309,310,311,312,313,314,315,316,317,318,319,320,321,322,323,324,325,326,327,328,329,330,331,332,333,334,335,336,337,338,339,340,341,342,343,344,345,346,347,348,349,350,351,352,353,354,355,356,357,358,359,360,361,362,363,364,365,366,367,368,369,370,371,372,373,374,375,376,377,378,379,380,381,382,383,384,385,386,387,388,389,390,391,392,393,394,395,396,397,398,399,400],"tree_info":[0,0,0,0,0,0,0,0,0,0,0,0,0,0,0,0,0,0,0,0,0,0,0,0,0,0,0,0,0,0,0,0,0,0,0,0,0,0,0,0,0,0,0,0,0,0,0,0,0,0,0,0,0,0,0,0,0,0,0,0,0,0,0,0,0,0,0,0,0,0,0,0,0,0,0,0,0,0,0,0,0,0,0,0,0,0,0,0,0,0,0,0,0,0,0,0,0,0,0,0,0,0,0,0,0,0,0,0,0,0,0,0,0,0,0,0,0,0,0,0,0,0,0,0,0,0,0,0,0,0,0,0,0,0,0,0,0,0,0,0,0,0,0,0,0,0,0,0,0,0,0,0,0,0,0,0,0,0,0,0,0,0,0,0,0,0,0,0,0,0,0,0,0,0,0,0,0,0,0,0,0,0,0,0,0,0,0,0,0,0,0,0,0,0,0,0,0,0,0,0,0,0,0,0,0,0,0,0,0,0,0,0,0,0,0,0,0,0,0,0,0,0,0,0,0,0,0,0,0,0,0,0,0,0,0,0,0,0,0,0,0,0,0,0,0,0,0,0,0,0,0,0,0,0,0,0,0,0,0,0,0,0,0,0,0,0,0,0,0,0,0,0,0,0,0,0,0,0,0,0,0,0,0,0,0,0,0,0,0,0,0,0,0,0,0,0,0,0,0,0,0,0,0,0,0,0,0,0,0,0,0,0,0,0,0,0,0,0,0,0,0,0,0,0,0,0,0,0,0,0,0,0,0,0,0,0,0,0,0,0,0,0,0,0,0,0,0,0,0,0,0,0,0,0,0,0,0,0,0,0,0,0,0,0,0,0,0,0,0,0,0,0,0,0,0,0,0,0,0,0,0,0,0,0,0,0,0,0,0,0,0,0,0,0,0,0,0,0,0,0],"trees":[{"base_weights":[5.451722E-2,-1.9491823E0,7.7873725E-1,-1.2221515E-1,-9.063975E-1,4.7084868E-1,1.9158689E0,-6.107923E-2,-3.7607025E-2,1.0455421E-1,7.4040514E-1,6.814678E-2,1.0829848E-1,-1.512582E-2,8.945799E-3,2.9583422E-2,4.341493E-2],"categories":[],"categories_nodes":[],"categories_segments":[],"categories_sizes":[],"default_left":[0,0,0,0,0,0,0,0,0,0,0,0,0,0,0,0,0],"id":0,"left_children":[1,3,5,-1,7,9,11,-1,-1,13,15,-1,-1,-1,-1,-1,-1],"loss_changes":[6.3408887E2,5.734073E1,1.1124449E2,0E0,7.799988E-1,2.4917301E1,6.0986786E0,0E0,0E0,3.3412495E0,2.1175385E0,0E0,0E0,0E0,0E0,0E0,0E0],"parents":[2147483647,0,0,1,1,2,2,4,4,5,5,6,6,9,9,10,10],"right_children":[2,4,6,-1,8,10,12,-1,-1,14,16,-1,-1,-1,-1,-1,-1],"split_conditions":[5.31E0,4.094281E0,8.25E0,-1.2221515E-1,3.5279994E5,6.180155E0,6.75E0,-6.107923E-2,-3.7607025E-2,5.9E0,6.512501E0,6.814678E-2,1.0829848E-1,-1.512582E-2,8.945799E-3,2.9583422E-2,4.341493E-2],"split_indices":[108,108,5,0,41,108,3,0,0,112,108,0,0,0,0,0,0],"split_type":[0,0,0,0,0,0,0,0,0,0,0,0,0,0,0,0,0],"sum_hessian":[4.35E2,1.15E2,3.2E2,7.7E1,3.8E1,2.53E2,6.7E1,1E1,2.8E1,1.08E2,1.45E2,2.3E1,4.4E1,1.6E1,9.2E1,7E1,7.5E1],"tree_param":{"num_deleted":"0","num_feature":"117","num_nodes":"17","size_leaf_vector":"1"}},{"base_weights":[-1.1149849E-2,-1.9240544E0,7.167014E-1,-2.2700267E0,-3.9027613E-2,4.1326246E-1,1.8095729E0,-1.1696341E-1,-7.360836E-2,1.0830088E-1,7.165167E-1,6.285735E-2,1.0431711E-1,-1.8177362E-2,1.0221116E-2,2.956441E-2,4.235966E-2],"categories":[],"categories_nodes":[],"categories_segments":[],"categories_sizes":[],"default_left":[0,0,0,0,0,0,0,0,0,0,0,0,0,0,0,0,0],"id":1,"left_children":[1,3,5,7,-1,9,11,-1,-1,13,15,-1,-1,-1,-1,-1,-1],"loss_changes":[5.9601605E2,4.460623E1,1.01832016E2,1.1471252E0,0E0,2.2405262E1,7.286743E0,0E0,0E0,5.637036E0,1.351677E0,0E0,0E0,0E0,0E0,0E0,0E0],"parents":[2147483647,0,0,1,1,2,2,3,3,5,5,6,6,9,9,10,10],"right_children":[2,4,6,8,-1,10,12,-1,-1,14,16,-1,-1,-1,-1,-1,-1],"split_conditions":[5.4E0,4.9E0,7.25E0,4.4E0,-3.9027613E-2,6.5E0,7.75E0,-1.1696341E-1,-7.360836E-2,5.9E0,6.539E-3,6.285735E-2,1.0431711E-1,-1.8177362E-2,1.0221116E-2,2.956441E-2,4.235966E-2],"split_indices":[111,111,111,2,0,2,2,0,0,111,114,0,0,0,0,0,0],"split_type":[0,0,0,0,0,0,0,0,0,0,0,0,0,0,0,0,0],"sum_hessian":[4.26E2,1.17E2,3.09E2,8.9E1,2.8E1,2.43E2,6.6E1,8E1,9E0,1.22E2,1.21E2,2.4E1,4.2E1,2E1,1.02E2,6.5E1,5.6E1],"tree_param":{"num_deleted":"0","num_feature":"117","num_nodes":"17","size_leaf_vector":"1"}},{"base_weights":[-5.0343595E-2,-1.8389494E0,6.873662E-1,-1.11360006E-1,-8.5264504E-1,4.1491646E-1,1.7380997E0,-3.462207E-2,-5.796341E-2,7.2448924E-2,6.805717E-1,6.1062474E-2,9.853011E-2,-1.6780527E-2,7.4491287E-3,2.6793197E-2,4.039633E-2],"categories":[],"categories_nodes":[],"categories_segments":[],"categories_sizes":[],"default_left":[0,0,0,0,0,0,0,0,0,0,0,0,0,0,0,0,0],"id":2,"left_children":[1,3,5,-1,7,9,11,-1,-1,13,15,-1,-1,-1,-1,-1,-1],"loss_changes":[5.6479376E2,4.5659668E1,8.580397E1,0E0,8.2962227E-1,2.1892136E1,4.724701E0,0E0,0E0,3.3729773E0,1.9390564E0,0E0,0E0,0E0,0E0,0E0,0E0],"parents":[2147483647,0,0,1,1,2,2,4,4,5,5,6,6,9,9,10,10],"right_children":[2,4,6,-1,8,10,12,-1,-1,14,16,-1,-1,-1,-1,-1,-1],"split_conditions":[5.111602E0,4.15E0,7.25E0,-1.11360006E-1,6.29008E5,6.180155E0,7.75E0,-3.462207E-2,-5.796341E-2,5.72157E0,6.512501E0,6.1062474E-2,9.853011E-2,-1.6780527E-2,7.4491287E-3,2.6793197E-2,4.039633E-2],"split_indices":[108,6,2,0,24,108,2,0,0,108,108,0,0,0,0,0,0],"split_type":[0,0,0,0,0,0,0,0,0,0,0,0,0,0,0,0,0],"sum_hessian":[4.26E2,1.24E2,3.02E2,8.8E1,3.6E1,2.41E2,6.1E1,2.6E1,1E1,1.06E2,1.35E2,2.1E1,4E1,1.6E1,9E1,6.6E1,6.9E1],"tree_param":{"num_deleted":"0","num_feature":"117","num_nodes":"17","size_leaf_vector":"1"}},{"base_weights":[-1.6417899E-3,-1.7733896E0,6.977161E-1,-1.05323754E-1,-8.267964E-1,3.8473588E-1,1.6714603E0,-5.5692922E-2,-3.3744987E-2,7.41138E-2,6.227402E-1,9.528833E-2,5.9907883E-2,-1.686938E-2,7.3778615E-3,2.5326181E-2,3.879289E-2],"categories":[],"categories_nodes":[],"categories_segments":[],"categories_sizes":[],"default_left":[0,0,0,0,0,0,0,0,0,0,0,0,0,0,0,0,0],"id":3,"left_children":[1,3,5,-1,7,9,11,-1,-1,13,15,-1,-1,-1,-1,-1,-1],"loss_changes":[5.428254E2,3.706183E1,9.484677E1,0E0,5.519104E-1,1.7553288E1,5.834427E0,0E0,0E0,3.2041183E0,1.8810692E0,0E0,0E0,0E0,0E0,0E0,0E0],"parents":[2147483647,0,0,1,1,2,2,4,4,5,5,6,6,9,9,10,10],"right_children":[2,4,6,-1,8,10,12,-1,-1,14,16,-1,-1,-1,-1,-1,-1],"split_conditions":[5.4E0,4.094281E0,7.25E0,-1.05323754E-1,3.232965E5,6.180155E0,1.9071338E4,-5.5692922E-2,-3.3744987E-2,5.72157E0,6.57559E0,9.528833E-2,5.9907883E-2,-1.686938E-2,7.3778615E-3,2.5326181E-2,3.879289E-2],"split_indices":[111,108,2,0,41,108,23,0,0,108,108,0,0,0,0,0,0],"split_type":[0,0,0,0,0,0,0,0,0,0,0,0,0,0,0,0,0],"sum_hessian":[4.36E2,1.23E2,3.13E2,9E1,3.3E1,2.38E2,7.5E1,9E0,2.4E1,1.04E2,1.34E2,4.8E1,2.7E1,1.5E1,8.9E1,7.9E1,5.5E1],"tree_param":{"num_deleted":"0","num_feature":"117","num_nodes":"17","size_leaf_vector":"1"}},{"base_weights":[1.6564758E-2,-1.6414778E0,6.424012E-1,-9.963215E-2,-8.009073E-1,3.6019254E-1,1.5337801E0,-5.2029368E-2,-3.0678479E-2,7.382836E-2,5.712469E-1,4.8374932E-2,8.5532226E-2,-1.1265266E-2,6.8991217E-3,2.2112388E-2,3.389175E-2],"categories":[],"categories_nodes":[],"categories_segments":[],"categories_sizes":[],"default_left":[0,0,0,0,0,0,0,0,0,0,0,0,0,0,0,0,0],"id":4,"left_children":[1,3,5,-1,7,9,11,-1,-1,13,15,-1,-1,-1,-1,-1,-1],"loss_changes":[4.6582782E2,3.4431732E1,8.126503E1,0E0,9.023533E-1,1.4942482E1,5.8892517E0,0E0,0E0,2.0757544E0,1.5544357E0,0E0,0E0,0E0,0E0,0E0,0E0],"parents":[2147483647,0,0,1,1,2,2,4,4,5,5,6,6,9,9,10,10],"right_children":[2,4,6,-1,8,10,12,-1,-1,14,16,-1,-1,-1,-1,-1,-1],"split_conditions":[5.4E0,4.15E0,6.887447E0,-9.963215E-2,3.8096025E5,6.162865E0,8.5E0,-5.2029368E-2,-3.0678479E-2,6.15E0,-1.6406E-2,4.8374932E-2,8.5532226E-2,-1.1265266E-2,6.8991217E-3,2.2112388E-2,3.389175E-2],"split_indices":[113,6,108,0,41,108,4,0,0,4,114,0,0,0,0,0,0],"split_type":[0,0,0,0,0,0,0,0,0,0,0,0,0,0,0,0,0],"sum_hessian":[4.47E2,1.22E2,3.25E2,8.5E1,3.7E1,2.48E2,7.7E1,1.4E1,2.3E1,1.06E2,1.42E2,2E1,5.7E1,1.8E1,8.8E1,6.7E1,7.5E1],"tree_param":{"num_deleted":"0","num_feature":"117","num_nodes":"17","size_leaf_vector":"1"}},{"base_weights":[3.6686417E-2,-1.5744301E0,6.343142E-1,-9.436601E-2,-7.398948E-1,3.472355E-1,1.4935971E0,-4.933614E-2,-2.9074261E-2,1.0318075E-1,5.6016856E-1,8.6843446E-2,5.3835638E-2,-1.406083E-2,7.537126E-3,2.4112556E-2,3.5945307E-2],"categories":[],"categories_nodes":[],"categories_segments":[],"categories_sizes":[],"default_left":[0,0,0,0,0,0,0,0,0,0,0,0,0,0,0,0,0],"id":5,"left_children":[1,3,5,-1,7,9,11,-1,-1,13,15,-1,-1,-1,-1,-1,-1],"loss_changes":[4.3418628E2,3.0197205E1,8.045561E1,0E0,6.3791084E-1,1.27637615E1,6.1646576E0,0E0,0E0,2.1684096E0,1.1658287E0,0E0,0E0,0E0,0E0,0E0,0E0],"parents":[2147483647,0,0,1,1,2,2,4,4,5,5,6,6,9,9,10,10],"right_children":[2,4,6,-1,8,10,12,-1,-1,14,16,-1,-1,-1,-1,-1,-1],"split_conditions":[5.111602E0,4.079706E0,6.887447E0,-9.436601E-2,3.8096025E5,6.241857E0,1.9071338E4,-4.933614E-2,-2.9074261E-2,5.72157E0,6.70507E0,8.6843446E-2,5.3835638E-2,-1.406083E-2,7.537126E-3,2.4112556E-2,3.5945307E-2],"split_indices":[108,108,108,0,41,108,23,0,0,108,110,0,0,0,0,0,0],"split_type":[0,0,0,0,0,0,0,0,0,0,0,0,0,0,0,0,0],"sum_hessian":[4.49E2,1.21E2,3.28E2,8.7E1,3.4E1,2.47E2,8.1E1,1.1E1,2.3E1,1.16E2,1.31E2,4.9E1,3.2E1,1.2E1,1.04E2,9.1E1,4E1],"tree_param":{"num_deleted":"0","num_feature":"117","num_nodes":"17","size_leaf_vector":"1"}},{"base_weights":[1.273025E-2,-1.5253509E0,5.7186925E-1,-9.12319E-2,-7.691746E-1,1.5602448E0,3.6652404E-1,-5.4836918E-2,-2.951398E-2,8.4125906E-2,6.0493827E-2,8.07424E-2,5.9701765E-1,-1.5781477E-2,7.47652E-3,2.3692891E-2,3.5784535E-2],"categories":[],"categories_nodes":[],"categories_segments":[],"categories_sizes":[],"default_left":[0,0,0,0,0,0,0,0,0,0,0,0,0,0,0,0,0],"id":6,"left_children":[1,3,5,-1,7,9,11,-1,-1,-1,-1,13,15,-1,-1,-1,-1],"loss_changes":[3.7745752E2,2.4815826E1,6.4588E1,0E0,1.2348995E0,3.135681E-2,1.7537407E1,0E0,0E0,0E0,0E0,3.3297281E0,1.7050438E0,0E0,0E0,0E0,0E0],"parents":[2147483647,0,0,1,1,2,2,4,4,5,5,6,6,11,11,12,12],"right_children":[2,4,6,-1,8,10,12,-1,-1,-1,-1,14,16,-1,-1,-1,-1],"split_conditions":[5.08937E0,4.4E0,1.957E3,-9.12319E-2,4.9E0,4.6337272E5,6.5E0,-5.4836918E-2,-2.951398E-2,8.4125906E-2,6.0493827E-2,5.72157E0,6.61217E0,-1.5781477E-2,7.47652E-3,2.3692891E-2,3.5784535E-2],"split_indices":[109,111,51,0,111,18,2,0,0,0,0,109,110,0,0,0,0],"split_type":[0,0,0,0,0,0,0,0,0,0,0,0,0,0,0,0,0],"sum_hessian":[4.37E2,1.16E2,3.21E2,8.2E1,3.4E1,5.4E1,2.67E2,1E1,2.4E1,3.7E1,1.7E1,1.2E2,1.47E2,1.7E1,1.03E2,7.5E1,7.2E1],"tree_param":{"num_deleted":"0","num_feature":"117","num_nodes":"17","size_leaf_vector":"1"}},{"base_weights":[2.1149213E-3,-1.3737515E0,5.389241E-1,-1.7004124E0,-5.8708704E-1,3.1532052E-1,1.4028685E0,-8.715961E-2,-5.2378166E-2,-2.9848892E-2,-3.0281998E-3,9.842676E-2,5.3408223E-1,7.839668E-2,5.022132E-2,-1.233581E-2,7.1729547E-3,2.1091117E-2,3.207735E-2],"categories":[],"categories_nodes":[],"categories_segments":[],"categories_sizes":[],"default_left":[0,0,0,0,0,0,0,0,0,0,0,0,0,0,0,0,0,0,0],"id":7,"left_children":[1,3,5,7,9,11,13,-1,-1,-1,-1,15,17,-1,-1,-1,-1,-1,-1],"loss_changes":[3.2636966E2,3.0637558E1,6.0817406E1,3.2460022E-1,9.5983505E-2,1.1935986E1,2.442871E0,0E0,0E0,0E0,0E0,2.0300622E0,1.1431084E0,0E0,0E0,0E0,0E0,0E0,0E0],"parents":[2147483647,0,0,1,1,2,2,3,3,4,4,5,5,6,6,11,11,12,12],"right_children":[2,4,6,8,10,12,14,-1,-1,-1,-1,16,18,-1,-1,-1,-1,-1,-1],"split_conditions":[5.31E0,4.329226E0,7.25E0,1.6472955E-1,5.7364E0,6.5E0,1.9071338E4,-8.715961E-2,-5.2378166E-2,-2.9848892E-2,-3.0281998E-3,5.72157E0,-5.911E-3,7.839668E-2,5.022132E-2,-1.233581E-2,7.1729547E-3,2.1091117E-2,3.207735E-2],"split_indices":[108,108,2,107,6,2,23,0,0,0,0,108,114,0,0,0,0,0,0],"split_type":[0,0,0,0,0,0,0,0,0,0,0,0,0,0,0,0,0,0,0],"sum_hessian":[4.4E2,1.23E2,3.17E2,8.6E1,3.7E1,2.53E2,6.4E1,7.9E1,7E0,3.6E1,1E0,1.28E2,1.25E2,4.3E1,2.1E1,1.4E1,1.14E2,6.4E1,6.1E1],"tree_param":{"num_deleted":"0","num_feature":"117","num_nodes":"19","size_leaf_vector":"1"}},{"base_weights":[-7.848286E-3,-1.3317033E0,5.19757E-1,-8.1291705E-2,-6.414696E-1,3.0993798E-1,1.2527825E0,-4.3884505E-2,-2.5265738E-2,8.759853E-2,5.0267017E-1,7.33646E-2,4.5368824E-2,-1.1717E-2,6.707561E-3,2.1019066E-2,2.9922737E-2],"categories":[],"categories_nodes":[],"categories_segments":[],"categories_sizes":[],"default_left":[0,0,0,0,0,0,0,0,0,0,0,0,0,0,0,0,0],"id":8,"left_children":[1,3,5,-1,7,9,11,-1,-1,13,15,-1,-1,-1,-1,-1,-1],"loss_changes":[3.136892E2,2.4716782E1,4.8826096E1,0E0,7.0469093E-1,1.0652788E1,3.691742E0,0E0,0E0,1.7898962E0,7.0272446E-1,0E0,0E0,0E0,0E0,0E0,0E0],"parents":[2147483647,0,0,1,1,2,2,4,4,5,5,6,6,9,9,10,10],"right_children":[2,4,6,-1,8,10,12,-1,-1,14,16,-1,-1,-1,-1,-1,-1],"split_conditions":[5.31E0,4.15E0,7.2689E0,-8.1291705E-2,4.6E5,6.5E0,1.414061E6,-4.3884505E-2,-2.5265738E-2,5.9E0,6.57559E0,7.33646E-2,4.5368824E-2,-1.1717E-2,6.707561E-3,2.1019066E-2,2.9922737E-2],"split_indices":[108,6,6,0,40,111,15,0,0,111,108,0,0,0,0,0,0],"split_type":[0,0,0,0,0,0,0,0,0,0,0,0,0,0,0,0,0],"sum_hessian":[4.47E2,1.27E2,3.2E2,8.8E1,3.9E1,2.5E2,7E1,1.2E1,2.7E1,1.17E2,1.33E2,4.1E1,2.9E1,1.4E1,1.03E2,7.5E1,5.8E1],"tree_param":{"num_deleted":"0","num_feature":"117","num_nodes":"17","size_leaf_vector":"1"}},{"base_weights":[5.9391796E-3,-1.2520149E0,5.1180696E-1,-1.5059476E0,-5.1020044E-1,3.067884E-1,1.2972358E0,-7.892095E-2,-5.0618548E-2,-2.599088E-2,-2.3208475E-3,8.448198E-2,5.1399535E-1,7.8765616E-2,5.5253383E-2,-9.233928E-3,6.369542E-3,2.0091182E-2,3.0922333E-2],"categories":[],"categories_nodes":[],"categories_segments":[],"categories_sizes":[],"default_left":[0,0,0,0,0,0,0,0,0,0,0,0,0,0,0,0,0,0,0],"id":9,"left_children":[1,3,5,7,9,11,13,-1,-1,-1,-1,15,17,-1,-1,-1,-1,-1,-1],"loss_changes":[2.8183722E2,2.295317E1,5.0326317E1,1.5053711E0,7.0898056E-2,1.1504713E1,1.4645691E0,0E0,0E0,0E0,0E0,1.4383701E0,1.1726112E0,0E0,0E0,0E0,0E0,0E0,0E0],"parents":[2147483647,0,0,1,1,2,2,3,3,4,4,5,5,6,6,11,11,12,12],"right_children":[2,4,6,8,10,12,14,-1,-1,-1,-1,16,18,-1,-1,-1,-1,-1,-1],"split_conditions":[5.31E0,5.15E0,7.068372E0,3.631609E0,5.7364E0,6.5E0,2.9636174E4,-7.892095E-2,-5.0618548E-2,-2.599088E-2,-2.3208475E-3,5.9E0,6.61217E0,7.8765616E-2,5.5253383E-2,-9.233928E-3,6.369542E-3,2.0091182E-2,3.0922333E-2],"split_indices":[108,4,108,108,6,111,24,0,0,0,0,111,110,0,0,0,0,0,0],"split_type":[0,0,0,0,0,0,0,0,0,0,0,0,0,0,0,0,0,0,0],"sum_hessian":[4.41E2,1.26E2,3.15E2,9.3E1,3.3E1,2.51E2,6.4E1,7.9E1,1.4E1,3.2E1,1E0,1.22E2,1.29E2,2.3E1,4.1E1,1.6E1,1.06E2,6.5E1,6.4E1],"tree_param":{"num_deleted":"0","num_feature":"117","num_nodes":"19","size_leaf_vector":"1"}},{"base_weights":[2.6161762E-2,-1.2178227E0,4.9146247E-1,-1.4389616E0,-4.809934E-1,2.9734877E-1,1.2737496E0,-7.683436E-2,-5.428667E-2,-2.4550498E-2,-2.2628284E-3,5.054368E-2,4.558406E-1,5.509906E-2,7.675769E-2,-1.3914575E-2,4.078201E-3,1.759758E-2,2.9390464E-2],"categories":[],"categories_nodes":[],"categories_segments":[],"categories_sizes":[],"default_left":[0,0,0,0,0,0,0,0,0,0,0,0,0,0,0,0,0,0,0],"id":10,"left_children":[1,3,5,7,9,11,13,-1,-1,-1,-1,15,17,-1,-1,-1,-1,-1,-1],"loss_changes":[2.6157678E2,1.91577E1,4.9423668E1,1.3141632E0,5.508995E-2,1.0292219E1,9.631424E-1,0E0,0E0,0E0,0E0,1.0740864E0,1.9064674E0,0E0,0E0,0E0,0E0,0E0,0E0],"parents":[2147483647,0,0,1,1,2,2,3,3,4,4,5,5,6,6,11,11,12,12],"right_children":[2,4,6,8,10,12,14,-1,-1,-1,-1,16,18,-1,-1,-1,-1,-1,-1],"split_conditions":[5.31E0,4.9E0,7.347131E0,-5.31738E-1,5.7364E0,6.162865E0,6.7475E-2,-7.683436E-2,-5.428667E-2,-2.4550498E-2,-2.2628284E-3,5.75E0,6.57559E0,5.509906E-2,7.675769E-2,-1.3914575E-2,4.078201E-3,1.759758E-2,2.9390464E-2],"split_indices":[108,2,109,114,6,108,114,0,0,0,0,2,108,0,0,0,0,0,0],"split_type":[0,0,0,0,0,0,0,0,0,0,0,0,0,0,0,0,0,0,0],"sum_hessian":[4.5E2,1.22E2,3.28E2,9.3E1,2.9E1,2.64E2,6.4E1,7E1,2.3E1,2.8E1,1E0,1.04E2,1.6E2,4.2E1,2.2E1,8E0,9.6E1,9.2E1,6.8E1],"tree_param":{"num_deleted":"0","num_feature":"117","num_nodes":"19","size_leaf_vector":"1"}},{"base_weights":[1.1977258E-2,-1.0877998E0,4.8521933E-1,-1.3862551E0,-4.3280077E-1,3.1462148E-1,1.2499149E0,-7.236149E-2,-4.6242043E-2,-2.4390308E-2,-1.55058475E-2,1.1616013E-1,4.688492E-1,5.2911796E-2,7.4342154E-2,1.7414872E-3,9.979489E-3,3.2340255E-2,2.0077458E-2],"categories":[],"categories_nodes":[],"categories_segments":[],"categories_sizes":[],"default_left":[0,0,0,0,0,0,0,0,0,0,0,0,0,0,0,0,0,0,0],"id":11,"left_children":[1,3,5,7,9,11,13,-1,-1,-1,-1,15,17,-1,-1,-1,-1,-1,-1],"loss_changes":[2.1802016E2,2.3849625E1,3.7673737E1,8.438873E-1,4.5609474E-2,7.2636223E0,5.7901E-1,0E0,0E0,0E0,0E0,6.9564044E-1,1.2522602E0,0E0,0E0,0E0,0E0,0E0,0E0],"parents":[2147483647,0,0,1,1,2,2,3,3,4,4,5,5,6,6,11,11,12,12],"right_children":[2,4,6,8,10,12,14,-1,-1,-1,-1,16,18,-1,-1,-1,-1,-1,-1],"split_conditions":[5.75E0,4.9E0,7.5E0,-4.39846E-1,5.4E0,6.5E0,6.7475E-2,-7.236149E-2,-4.6242043E-2,-2.4390308E-2,-1.55058475E-2,6.25E0,2.3870418E6,5.2911796E-2,7.4342154E-2,1.7414872E-3,9.979489E-3,3.2340255E-2,2.0077458E-2],"split_indices":[2,112,2,114,112,2,114,0,0,0,0,112,65,0,0,0,0,0,0],"split_type":[0,0,0,0,0,0,0,0,0,0,0,0,0,0,0,0,0,0,0],"sum_hessian":[4.17E2,1.25E2,2.92E2,8.5E1,4E1,2.4E2,5.2E1,7.3E1,1.2E1,2.5E1,1.5E1,1.06E2,1.34E2,3.2E1,2E1,5.5E1,5.1E1,3.4E1,1E2],"tree_param":{"num_deleted":"0","num_feature":"117","num_nodes":"19","size_leaf_vector":"1"}},{"base_weights":[-1.8757146E-3,-1.0641348E0,4.3641797E-1,-1.3015534E0,-4.4233352E-1,2.7473643E-1,1.1630675E0,-6.80588E-2,-4.325004E-2,-2.2491105E-2,-1.8186187E-3,8.105337E-2,4.3254E-1,5.0875854E-2,7.4320205E-2,2.1149199E-4,9.7846445E-3,1.656655E-2,2.6667967E-2],"categories":[],"categories_nodes":[],"categories_segments":[],"categories_sizes":[],"default_left":[0,0,0,0,0,0,0,0,0,0,0,0,0,0,0,0,0,0,0],"id":12,"left_children":[1,3,5,7,9,11,13,-1,-1,-1,-1,15,17,-1,-1,-1,-1,-1,-1],"loss_changes":[2.0398627E2,1.8146164E1,3.595728E1,9.9458313E-1,4.750204E-2,7.7073708E0,8.7262726E-1,0E0,0E0,0E0,0E0,1.0007932E0,1.165348E0,0E0,0E0,0E0,0E0,0E0,0E0],"parents":[2147483647,0,0,1,1,2,2,3,3,4,4,5,5,6,6,11,11,12,12],"right_children":[2,4,6,8,10,12,14,-1,-1,-1,-1,16,18,-1,-1,-1,-1,-1,-1],"split_conditions":[5.318414E0,4.329226E0,7.5E0,3.631609E0,5.7364E0,6.5E0,1.07414E-1,-6.80588E-2,-4.325004E-2,-2.2491105E-2,-1.8186187E-3,6.000489E0,6.57559E0,5.0875854E-2,7.4320205E-2,2.1149199E-4,9.7846445E-3,1.656655E-2,2.6667967E-2],"split_indices":[108,108,111,108,6,2,114,0,0,0,0,108,108,0,0,0,0,0,0],"split_type":[0,0,0,0,0,0,0,0,0,0,0,0,0,0,0,0,0,0,0],"sum_hessian":[4.36E2,1.27E2,3.09E2,9.1E1,3.6E1,2.54E2,5.5E1,7.8E1,1.3E1,3.5E1,1E0,1.15E2,1.39E2,4.1E1,1.4E1,7E1,4.5E1,7.2E1,6.7E1],"tree_param":{"num_deleted":"0","num_feature":"117","num_nodes":"19","size_leaf_vector":"1"}},{"base_weights":[3.3166885E-2,-9.814176E-1,4.419E-1,-1.2205292E0,-3.7352517E-1,2.8487867E-1,1.1128188E0,-6.4913094E-2,-4.3436762E-2,-1.8965688E-2,-1.7731524E-3,7.768013E-2,4.132088E-1,1.1919098E0,4.1470192E-2,1.3962153E-3,8.037123E-3,1.5858453E-2,2.5844986E-2,6.0257535E-2,1.372579E-2],"categories":[],"categories_nodes":[],"categories_segments":[],"categories_sizes":[],"default_left":[0,0,0,0,0,0,0,0,0,0,0,0,0,0,0,0,0,0,0,0,0],"id":13,"left_children":[1,3,5,7,9,11,13,-1,-1,-1,-1,15,17,19,-1,-1,-1,-1,-1,-1,-1],"loss_changes":[1.7621013E2,1.7117882E1,3.1463837E1,1.0345612E0,1.5518665E-2,6.486498E0,8.69751E-2,0E0,0E0,0E0,0E0,3.733968E-1,1.2663307E0,3.1383514E-2,0E0,0E0,0E0,0E0,0E0,0E0,0E0],"parents":[2147483647,0,0,1,1,2,2,3,3,4,4,5,5,6,6,11,11,12,12,13,13],"right_children":[2,4,6,8,10,12,14,-1,-1,-1,-1,16,18,20,-1,-1,-1,-1,-1,-1,-1],"split_conditions":[5.75E0,4.9E0,7.5E0,3.544667E0,5.7364E0,6.180155E0,4.6337272E5,-6.4913094E-2,-4.3436762E-2,-1.8965688E-2,-1.7731524E-3,6.000489E0,6.61217E0,1.41241E1,4.1470192E-2,1.3962153E-3,8.037123E-3,1.5858453E-2,2.5844986E-2,6.0257535E-2,1.372579E-2],"split_indices":[2,111,2,108,6,108,18,0,0,0,0,108,110,17,0,0,0,0,0,0,0],"split_type":[0,0,0,0,0,0,0,0,0,0,0,0,0,0,0,0,0,0,0,0,0],"sum_hessian":[4.23E2,1.21E2,3.02E2,8.6E1,3.5E1,2.46E2,5.6E1,6.8E1,1.8E1,3.4E1,1E0,9.5E1,1.51E2,4.1E1,1.5E1,6.1E1,3.4E1,8.1E1,7E1,4E1,1E0],"tree_param":{"num_deleted":"0","num_feature":"117","num_nodes":"21","size_leaf_vector":"1"}},{"base_weights":[4.8766498E-2,-9.3215823E-1,4.3040466E-1,-1.2031631E0,-3.8480353E-1,2.8195432E-1,1.0585725E0,-6.289681E-2,-4.2593237E-2,-2.1234913E-2,-1.2925749E-2,8.9042656E-2,4.0176135E-1,4.499152E-2,6.364427E-2,1.3134056E-3,8.5851895E-3,1.5408349E-2,2.4936961E-2],"categories":[],"categories_nodes":[],"categories_segments":[],"categories_sizes":[],"default_left":[0,0,0,0,0,0,0,0,0,0,0,0,0,0,0,0,0,0,0],"id":14,"left_children":[1,3,5,7,9,11,13,-1,-1,-1,-1,15,17,-1,-1,-1,-1,-1,-1],"loss_changes":[1.5907896E2,1.7030182E1,2.8102509E1,2.3751831E-1,2.8455734E-2,5.6700764E0,6.1053467E-1,0E0,0E0,0E0,0E0,4.790269E-1,1.1543312E0,0E0,0E0,0E0,0E0,0E0,0E0],"parents":[2147483647,0,0,1,1,2,2,3,3,4,4,5,5,6,6,11,11,12,12],"right_children":[2,4,6,8,10,12,14,-1,-1,-1,-1,16,18,-1,-1,-1,-1,-1,-1],"split_conditions":[6E0,4.9E0,6.5E0,-5.08633E-1,-9.6583E-2,6.21E0,6.7475E-2,-6.289681E-2,-4.2593237E-2,-2.1234913E-2,-1.2925749E-2,6.25E0,6.61217E0,4.499152E-2,6.364427E-2,1.3134056E-3,8.5851895E-3,1.5408349E-2,2.4936961E-2],"split_indices":[4,111,3,114,114,110,114,0,0,0,0,111,110,0,0,0,0,0,0],"split_type":[0,0,0,0,0,0,0,0,0,0,0,0,0,0,0,0,0,0,0],"sum_hessian":[4.23E2,1.18E2,3.05E2,7.8E1,4E1,2.48E2,5.7E1,6.5E1,1.3E1,2.8E1,1.2E1,9.6E1,1.52E2,3.6E1,2.1E1,5.6E1,4E1,8E1,7.2E1],"tree_param":{"num_deleted":"0","num_feature":"117","num_nodes":"19","size_leaf_vector":"1"}},{"base_weights":[-3.447469E-3,-9.299615E-1,3.8776797E-1,-1.1244508E0,-3.827134E-1,2.176591E-1,9.259846E-1,-5.999412E-2,-4.2911477E-2,-1.9459223E-2,-1.4056778E-3,6.381267E-2,3.54195E-1,8.180605E-1,6.808888E-2,-1.8683284E-3,6.166825E-3,1.2928187E-2,2.171254E-2,2.8633658E-2,4.410317E-2],"categories":[],"categories_nodes":[],"categories_segments":[],"categories_sizes":[],"default_left":[0,0,0,0,0,0,0,0,0,0,0,0,0,0,0,0,0,0,0,0,0],"id":15,"left_children":[1,3,5,7,9,11,13,-1,-1,-1,-1,15,17,19,-1,-1,-1,-1,-1,-1,-1],"loss_changes":[1.5990012E2,1.3361778E1,2.8066269E1,6.922455E-1,2.993536E-2,4.9139156E0,2.148407E0,0E0,0E0,0E0,0E0,6.937568E-1,7.754164E-1,3.2313538E-1,0E0,0E0,0E0,0E0,0E0,0E0,0E0],"parents":[2147483647,0,0,1,1,2,2,3,3,4,4,5,5,6,6,11,11,12,12,13,13],"right_children":[2,4,6,8,10,12,14,-1,-1,-1,-1,16,18,20,-1,-1,-1,-1,-1,-1,-1],"split_conditions":[5.31E0,4.9E0,7.25E0,-5.66763E-1,5.7364E0,6.5E0,2.24104E-1,-5.999412E-2,-4.2911477E-2,-1.9459223E-2,-1.4056778E-3,5.909875E0,-5.911E-3,7.5E0,6.808888E-2,-1.8683284E-3,6.166825E-3,1.2928187E-2,2.171254E-2,2.8633658E-2,4.410317E-2],"split_indices":[108,111,111,114,6,111,114,0,0,0,0,108,114,2,0,0,0,0,0,0,0],"split_type":[0,0,0,0,0,0,0,0,0,0,0,0,0,0,0,0,0,0,0,0,0],"sum_hessian":[4.39E2,1.3E2,3.09E2,9.5E1,3.5E1,2.36E2,7.3E1,7.1E1,2.4E1,3.4E1,1E0,1.12E2,1.24E2,6.1E1,1.2E1,4.1E1,7.1E1,5.9E1,6.5E1,1.5E1,4.6E1],"tree_param":{"num_deleted":"0","num_feature":"117","num_nodes":"21","size_leaf_vector":"1"}},{"base_weights":[2.1068027E-2,-8.4027386E-1,3.676174E-1,-1.0629911E0,-1.7679883E-2,2.370841E-1,9.7363734E-1,-5.6708198E-2,-3.921029E-2,7.506949E-2,3.5734457E-1,4.3462407E-2,6.373055E-2,8.6229126E-4,8.3773695E-3,1.5457207E-2,2.5061628E-2],"categories":[],"categories_nodes":[],"categories_segments":[],"categories_sizes":[],"default_left":[0,0,0,0,0,0,0,0,0,0,0,0,0,0,0,0,0],"id":16,"left_children":[1,3,5,7,-1,9,11,-1,-1,13,15,-1,-1,-1,-1,-1,-1],"loss_changes":[1.23839584E2,1.238102E1,2.3063408E1,5.259476E-1,0E0,4.7035017E0,3.1141663E-1,0E0,0E0,5.4545677E-1,7.349739E-1,0E0,0E0,0E0,0E0,0E0,0E0],"parents":[2147483647,0,0,1,1,2,2,3,3,5,5,6,6,9,9,10,10],"right_children":[2,4,6,8,-1,10,12,-1,-1,14,16,-1,-1,-1,-1,-1,-1],"split_conditions":[5.451005E0,4.5431E0,7.5E0,-5.31738E-1,-1.7679883E-2,6.241857E0,1.97728E-1,-5.6708198E-2,-3.921029E-2,6.045112E0,2.15E1,4.3462407E-2,6.373055E-2,8.6229126E-4,8.3773695E-3,1.5457207E-2,2.5061628E-2],"split_indices":[108,108,2,114,0,110,114,0,0,108,1,0,0,0,0,0,0],"split_type":[0,0,0,0,0,0,0,0,0,0,0,0,0,0,0,0,0],"sum_hessian":[4.13E2,1.18E2,2.95E2,8E1,3.8E1,2.44E2,5.1E1,6.1E1,1.9E1,1.05E2,1.39E2,4.1E1,1E1,6.6E1,3.9E1,1.07E2,3.2E1],"tree_param":{"num_deleted":"0","num_feature":"117","num_nodes":"17","size_leaf_vector":"1"}},{"base_weights":[2.175978E-2,-7.977599E-1,3.5579672E-1,-1.0127333E0,-3.40673E-1,2.1700284E-1,8.287492E-1,-5.514838E-2,-4.0661037E-2,-2.0163046E-2,-1.3187217E-2,8.288371E-2,3.276893E-1,9.302397E-1,2.9269388E-2,1.0008322E-3,7.2929324E-3,1.1335319E-2,1.9624203E-2,1.0068725E-2,4.6986975E-2],"categories":[],"categories_nodes":[],"categories_segments":[],"categories_sizes":[],"default_left":[0,0,0,0,0,0,0,0,0,0,0,0,0,0,0,0,0,0,0,0,0],"id":17,"left_children":[1,3,5,7,9,11,13,-1,-1,-1,-1,15,17,19,-1,-1,-1,-1,-1,-1,-1],"loss_changes":[1.1630957E2,1.1605827E1,1.9539742E1,4.0566254E-1,2.4348736E-2,3.4203968E0,9.834099E-1,0E0,0E0,0E0,0E0,4.0807027E-1,6.866274E-1,1.5155792E-2,0E0,0E0,0E0,0E0,0E0,0E0,0E0],"parents":[2147483647,0,0,1,1,2,2,3,3,4,4,5,5,6,6,11,11,12,12,13,13],"right_children":[2,4,6,8,10,12,14,-1,-1,-1,-1,16,18,20,-1,-1,-1,-1,-1,-1,-1],"split_conditions":[5.451005E0,4.9E0,7.25E0,-5.97004E-1,5.034755E0,6.5E0,1.4140479E6,-5.514838E-2,-4.0661037E-2,-2.0163046E-2,-1.3187217E-2,5.988979E0,-2.6107E-2,-5.08633E-1,2.9269388E-2,1.0008322E-3,7.2929324E-3,1.1335319E-2,1.9624203E-2,1.0068725E-2,4.6986975E-2],"split_indices":[108,2,2,114,109,2,16,0,0,0,0,108,114,114,0,0,0,0,0,0,0],"split_type":[0,0,0,0,0,0,0,0,0,0,0,0,0,0,0,0,0,0,0,0,0],"sum_hessian":[4.23E2,1.22E2,3.01E2,8.2E1,4E1,2.34E2,6.7E1,5.3E1,2.9E1,1.9E1,2.1E1,1.07E2,1.27E2,4.5E1,2.2E1,5.5E1,5.2E1,5.2E1,7.5E1,1E0,4.4E1],"tree_param":{"num_deleted":"0","num_feature":"117","num_nodes":"21","size_leaf_vector":"1"}},{"base_weights":[-5.8351182E-3,-8.250028E-1,3.1031013E-1,-5.0477386E-2,-4.2434976E-1,1.8160062E-1,7.850441E-1,-1.49748E-2,-2.8084546E-2,1.820677E-2,2.8348774E-1,7.025085E-1,5.9174985E-2,-7.7919103E-3,3.2753625E-3,1.0317194E-2,1.8576417E-2,2.4800664E-2,3.8274158E-2],"categories":[],"categories_nodes":[],"categories_segments":[],"categories_sizes":[],"default_left":[0,0,0,0,0,0,0,0,0,0,0,0,0,0,0,0,0,0,0],"id":18,"left_children":[1,3,5,-1,7,9,11,-1,-1,13,15,17,-1,-1,-1,-1,-1,-1,-1],"loss_changes":[1.1529282E2,8.596573E0,1.937476E1,0E0,4.4870758E-1,4.1931915E0,1.2162819E0,0E0,0E0,8.1618416E-1,9.2507076E-1,2.613964E-1,0E0,0E0,0E0,0E0,0E0,0E0,0E0],"parents":[2147483647,0,0,1,1,2,2,4,4,5,5,6,6,9,9,10,10,11,11],"right_children":[2,4,6,-1,8,10,12,-1,-1,14,16,18,-1,-1,-1,-1,-1,-1,-1],"split_conditions":[5.4E0,4.4E0,7.25E0,-5.0477386E-2,7.51015E1,6.115878E0,2.24104E-1,-1.49748E-2,-2.8084546E-2,5.9E0,6.539E-3,7.369136E0,5.9174985E-2,-7.7919103E-3,3.2753625E-3,1.0317194E-2,1.8576417E-2,2.4800664E-2,3.8274158E-2],"split_indices":[111,2,111,0,10,110,114,0,0,111,114,108,0,0,0,0,0,0,0],"split_type":[0,0,0,0,0,0,0,0,0,0,0,0,0,0,0,0,0,0,0],"sum_hessian":[4.43E2,1.23E2,3.2E2,8.3E1,4E1,2.53E2,6.7E1,2.3E1,1.7E1,9.8E1,1.55E2,5.8E1,9E0,2E1,7.8E1,8.5E1,7E1,1.6E1,4.2E1],"tree_param":{"num_deleted":"0","num_feature":"117","num_nodes":"19","size_leaf_vector":"1"}},{"base_weights":[8.672973E-3,-7.89111E-1,2.949582E-1,-4.7529202E-2,-4.1006994E-1,1.6955669E-1,7.696798E-1,-2.7013397E-2,-1.4905678E-2,1.1560839E-2,2.591471E-1,4.459374E-2,2.7821993E-2,-9.956934E-3,2.1736722E-3,9.661826E-3,1.7032089E-2],"categories":[],"categories_nodes":[],"categories_segments":[],"categories_sizes":[],"default_left":[0,0,0,0,0,0,0,0,0,0,0,0,0,0,0,0,0],"id":19,"left_children":[1,3,5,-1,7,9,11,-1,-1,13,15,-1,-1,-1,-1,-1,-1],"loss_changes":[9.862107E1,6.4514923E0,1.8706367E1,0E0,2.798543E-1,3.551127E0,1.0786438E0,0E0,0E0,6.184199E-1,7.455778E-1,0E0,0E0,0E0,0E0,0E0,0E0],"parents":[2147483647,0,0,1,1,2,2,4,4,5,5,6,6,9,9,10,10],"right_children":[2,4,6,-1,8,10,12,-1,-1,14,16,-1,-1,-1,-1,-1,-1],"split_conditions":[5.4E0,4.65E0,7.25E0,-4.7529202E-2,3.5279994E5,6.083201E0,4.2706312E5,-2.7013397E-2,-1.4905678E-2,5.516601E0,1.7094E-2,4.459374E-2,2.7821993E-2,-9.956934E-3,2.1736722E-3,9.661826E-3,1.7032089E-2],"split_indices":[111,4,111,0,41,108,18,0,0,108,114,0,0,0,0,0,0],"split_type":[0,0,0,0,0,0,0,0,0,0,0,0,0,0,0,0,0],"sum_hessian":[4.3E2,1.13E2,3.17E2,7.8E1,3.5E1,2.52E2,6.5E1,1.4E1,2.1E1,9.2E1,1.6E2,3.9E1,2.6E1,1.1E1,8.1E1,9.1E1,6.9E1],"tree_param":{"num_deleted":"0","num_feature":"117","num_nodes":"17","size_leaf_vector":"1"}},{"base_weights":[2.3304122E-3,-7.033609E-1,3.13713E-1,-8.7478644E-1,-1.3807068E-2,1.926317E-1,8.115484E-1,-4.8196994E-2,-3.4956004E-2,7.25041E-2,2.9339796E-1,3.5361744E-2,5.4459125E-2,7.453173E-4,6.3067297E-3,2.0520434E-2,1.2563586E-2],"categories":[],"categories_nodes":[],"categories_segments":[],"categories_sizes":[],"default_left":[0,0,0,0,0,0,0,0,0,0,0,0,0,0,0,0,0],"id":20,"left_children":[1,3,5,7,-1,9,11,-1,-1,13,15,-1,-1,-1,-1,-1,-1],"loss_changes":[9.620808E1,9.457008E0,1.806794E1,6.476059E-1,0E0,2.919921E0,7.587471E-1,0E0,0E0,3.3616126E-1,4.862938E-1,0E0,0E0,0E0,0E0,0E0,0E0],"parents":[2147483647,0,0,1,1,2,2,3,3,5,5,6,6,9,9,10,10],"right_children":[2,4,6,8,-1,10,12,-1,-1,14,16,-1,-1,-1,-1,-1,-1],"split_conditions":[6E0,4.9E0,6.5E0,-6.5E-1,-1.3807068E-2,6.5E0,1.97728E-1,-4.8196994E-2,-3.4956004E-2,6.5E0,2.3870418E6,3.5361744E-2,5.4459125E-2,7.453173E-4,6.3067297E-3,2.0520434E-2,1.2563586E-2],"split_indices":[4,111,3,114,0,111,114,0,0,4,65,0,0,0,0,0,0],"split_type":[0,0,0,0,0,0,0,0,0,0,0,0,0,0,0,0,0],"sum_hessian":[4.36E2,1.33E2,3.03E2,9.4E1,3.9E1,2.45E2,5.8E1,5.9E1,3.5E1,1.13E2,1.32E2,4.5E1,1.3E1,5.6E1,5.7E1,3.2E1,1E2],"tree_param":{"num_deleted":"0","num_feature":"117","num_nodes":"17","size_leaf_vector":"1"}},{"base_weights":[-5.7256166E-3,-6.6459334E-1,2.9325587E-1,-8.633015E-1,-3.435971E-1,1.737082E-1,7.076476E-1,-4.6511624E-2,-3.5673942E-2,-2.481704E-1,-2.5304044E-2,3.0694144E-2,2.4350455E-1,2.8119285E-2,4.4575404E-2,-0E0,-1.262487E-2,3.824151E-3,-4.079341E-4,8.770085E-3,1.6145816E-2],"categories":[],"categories_nodes":[],"categories_segments":[],"categories_sizes":[],"default_left":[0,0,0,0,0,0,0,0,0,0,0,0,0,0,0,0,0,0,0,0,0],"id":21,"left_children":[1,3,5,7,9,11,13,-1,-1,15,-1,17,19,-1,-1,-1,-1,-1,-1,-1,-1],"loss_changes":[8.769525E1,8.448742E0,1.4948048E1,2.4288177E-2,6.5177107E-1,2.350771E0,1.1693802E0,0E0,0E0,1.6401768E-2,0E0,1.4977863E-1,7.5883484E-1,0E0,0E0,0E0,0E0,0E0,0E0,0E0,0E0],"parents":[2147483647,0,0,1,1,2,2,3,3,4,4,5,5,6,6,9,9,11,11,12,12],"right_children":[2,4,6,8,10,12,14,-1,-1,16,-1,18,20,-1,-1,-1,-1,-1,-1,-1,-1],"split_conditions":[5.516601E0,4.4E0,7.25E0,-6.77429E-1,6.29008E5,6.090979E0,2.7891E-2,-4.6511624E-2,-3.5673942E-2,2.742412E0,-2.5304044E-2,6.06033E1,6.539E-3,2.8119285E-2,4.4575404E-2,-0E0,-1.262487E-2,3.824151E-3,-4.079341E-4,8.770085E-3,1.6145816E-2],"split_indices":[108,2,2,114,24,108,114,0,0,14,0,103,114,0,0,0,0,0,0,0,0],"split_type":[0,0,0,0,0,0,0,0,0,0,0,0,0,0,0,0,0,0,0,0,0],"sum_hessian":[4.43E2,1.38E2,3.05E2,8.4E1,5.4E1,2.38E2,6.7E1,5.4E1,3E1,3.6E1,1.8E1,7.9E1,1.59E2,4E1,2.7E1,1E0,3.5E1,3.7E1,4.2E1,8.8E1,7.1E1],"tree_param":{"num_deleted":"0","num_feature":"117","num_nodes":"21","size_leaf_vector":"1"}},{"base_weights":[6.169856E-3,-6.918974E-1,2.560921E-1,-4.126234E-2,-3.8097665E-1,1.5200362E-1,6.960029E-1,-2.3890832E-2,-1.2601787E-2,3.898913E-2,2.6839972E-1,3.0774672E-2,4.792082E-2,-6.741028E-3,3.5145914E-3,1.0239506E-2,1.5993252E-2],"categories":[],"categories_nodes":[],"categories_segments":[],"categories_sizes":[],"default_left":[0,0,0,0,0,0,0,0,0,0,0,0,0,0,0,0,0],"id":22,"left_children":[1,3,5,-1,7,9,11,-1,-1,13,15,-1,-1,-1,-1,-1,-1],"loss_changes":[7.4803566E1,4.25008E0,1.4278936E1,0E0,2.5610685E-1,3.3394885E0,5.2031326E-1,0E0,0E0,7.2119784E-1,2.9451466E-1,0E0,0E0,0E0,0E0,0E0,0E0],"parents":[2147483647,0,0,1,1,2,2,4,4,5,5,6,6,9,9,10,10],"right_children":[2,4,6,-1,8,10,12,-1,-1,14,16,-1,-1,-1,-1,-1,-1],"split_conditions":[5.4E0,4.65E0,7.5E0,-4.126234E-2,4.9E0,6.357853E0,1.97728E-1,-2.3890832E-2,-1.2601787E-2,5.9E0,6.57559E0,3.0774672E-2,4.792082E-2,-6.741028E-3,3.5145914E-3,1.0239506E-2,1.5993252E-2],"split_indices":[111,4,112,0,3,108,114,0,0,111,108,0,0,0,0,0,0],"split_type":[0,0,0,0,0,0,0,0,0,0,0,0,0,0,0,0,0],"sum_hessian":[4.27E2,1.12E2,3.15E2,7.7E1,3.5E1,2.56E2,5.9E1,1.8E1,1.7E1,1.31E2,1.25E2,4.8E1,1.1E1,1.9E1,1.12E2,5.9E1,6.6E1],"tree_param":{"num_deleted":"0","num_feature":"117","num_nodes":"17","size_leaf_vector":"1"}},{"base_weights":[-1.2603082E-3,-6.040622E-1,2.6763266E-1,-3.9691E-2,-3.1024146E-1,1.5501498E-1,6.218237E-1,-4.3963385E-1,-2.2336699E-1,5.9159793E-2,2.4178307E-1,2.5476823E-2,8.056796E-1,-2.258859E-2,-2.4218773E-3,-1.15223965E-2,-1.7663622E-3,5.2128476E-4,5.7571135E-3,9.734984E-3,1.7162768E-2,8.391903E-3,4.102399E-2],"categories":[],"categories_nodes":[],"categories_segments":[],"categories_sizes":[],"default_left":[0,0,0,0,0,0,0,0,0,0,0,0,0,0,0,0,0,0,0,0,0,0,0],"id":23,"left_children":[1,3,5,-1,7,9,11,13,15,17,19,-1,21,-1,-1,-1,-1,-1,-1,-1,-1,-1,-1],"loss_changes":[7.248708E1,7.3374786E0,1.2151371E1,0E0,4.6499014E-1,1.9184542E0,9.8566055E-1,2.781105E-2,1.3215423E-2,2.9726386E-1,4.6702528E-1,0E0,8.905411E-3,0E0,0E0,0E0,0E0,0E0,0E0,0E0,0E0,0E0,0E0],"parents":[2147483647,0,0,1,1,2,2,4,4,5,5,6,6,7,7,8,8,9,9,10,10,12,12],"right_children":[2,4,6,-1,8,10,12,14,16,18,20,-1,22,-1,-1,-1,-1,-1,-1,-1,-1,-1,-1],"split_conditions":[5.516601E0,4.4E0,7.25E0,-3.9691E-2,5.15E0,6.318877E0,2.9561E-2,5.9099E0,-3.7565E-2,5.563075E-1,1.14593E-1,2.5476823E-2,7.25E0,-2.258859E-2,-2.4218773E-3,-1.15223965E-2,-1.7663622E-3,5.2128476E-4,5.7571135E-3,9.734984E-3,1.7162768E-2,8.391903E-3,4.102399E-2],"split_indices":[108,2,111,0,111,108,114,7,114,99,114,0,2,0,0,0,0,0,0,0,0,0,0],"split_type":[0,0,0,0,0,0,0,0,0,0,0,0,0,0,0,0,0,0,0,0,0,0,0],"sum_hessian":[4.45E2,1.37E2,3.08E2,8.2E1,5.5E1,2.35E2,7.3E1,2E1,3.5E1,1.13E2,1.22E2,4.8E1,2.5E1,1.9E1,1E0,3.3E1,2E0,6.2E1,5.1E1,8.6E1,3.6E1,1E0,2.4E1],"tree_param":{"num_deleted":"0","num_feature":"117","num_nodes":"23","size_leaf_vector":"1"}},{"base_weights":[-2.7065775E-3,-5.977567E-1,2.372591E-1,-7.265109E-1,-2.8274038E-1,1.5074554E-1,6.539688E-1,-3.9656725E-2,-2.9814927E-2,-1.9866956E-2,-2.1338767E-1,5.6321636E-2,2.4687232E-1,3.890561E-2,2.5833443E-2,-1.0918415E-2,-0E0,6.0331426E-5,5.7941745E-3,1.6872153E-2,1.0511924E-2],"categories":[],"categories_nodes":[],"categories_segments":[],"categories_sizes":[],"default_left":[0,0,0,0,0,0,0,0,0,0,0,0,0,0,0,0,0,0,0,0,0],"id":24,"left_children":[1,3,5,7,9,11,13,-1,-1,-1,15,17,19,-1,-1,-1,-1,-1,-1,-1,-1],"loss_changes":[6.3577343E1,4.8852997E0,1.1249126E1,1.6888046E-1,1.6410184E-1,2.3520155E0,3.8891983E-1,0E0,0E0,0E0,1.0376692E-2,4.313227E-1,3.0562305E-1,0E0,0E0,0E0,0E0,0E0,0E0,0E0,0E0],"parents":[2147483647,0,0,1,1,2,2,3,3,4,4,5,5,6,6,10,10,11,11,12,12],"right_children":[2,4,6,8,10,12,14,-1,-1,-1,16,18,20,-1,-1,-1,-1,-1,-1,-1,-1],"split_conditions":[5.318414E0,4.8351E0,6.5E0,9.525914E0,1.9044881E5,6.357853E0,7.9457E3,-3.9656725E-2,-2.9814927E-2,-1.9866956E-2,5.7364E0,5.563075E-1,2.2528402E6,3.890561E-2,2.5833443E-2,-1.0918415E-2,-0E0,6.0331426E-5,5.7941745E-3,1.6872153E-2,1.0511924E-2],"split_indices":[109,8,3,105,42,108,80,0,0,0,6,99,27,0,0,0,0,0,0,0,0],"split_type":[0,0,0,0,0,0,0,0,0,0,0,0,0,0,0,0,0,0,0,0,0],"sum_hessian":[4.43E2,1.27E2,3.16E2,8.9E1,3.8E1,2.63E2,5.3E1,5.5E1,3.4E1,1.2E1,2.6E1,1.34E2,1.29E2,2.5E1,2.8E1,2.5E1,1E0,7.1E1,6.3E1,3.4E1,9.5E1],"tree_param":{"num_deleted":"0","num_feature":"117","num_nodes":"21","size_leaf_vector":"1"}},{"base_weights":[-6.4867823E-3,-5.461924E-1,2.4270986E-1,-6.8193287E-1,-2.1864587E-1,1.5322591E-1,6.36072E-1,-3.7935182E-2,-2.6804904E-2,-1.1903191E-2,-6.038015E-3,4.250654E-2,2.2367322E-1,5.500884E-1,4.6436198E-2,3.7067765E-4,4.2855525E-3,8.295372E-3,1.4291494E-2,2.7822023E-2,4.10615E-3],"categories":[],"categories_nodes":[],"categories_segments":[],"categories_sizes":[],"default_left":[0,0,0,0,0,0,0,0,0,0,0,0,0,0,0,0,0,0,0,0,0],"id":25,"left_children":[1,3,5,7,9,11,13,-1,-1,-1,-1,15,17,19,-1,-1,-1,-1,-1,-1,-1],"loss_changes":[6.001222E1,6.0298843E0,1.05594845E1,5.721741E-1,1.7100334E-2,1.9138455E0,7.5038147E-1,0E0,0E0,0E0,0E0,1.4015345E-1,4.5316553E-1,2.7184486E-2,0E0,0E0,0E0,0E0,0E0,0E0,0E0],"parents":[2147483647,0,0,1,1,2,2,3,3,4,4,5,5,6,6,11,11,12,12,13,13],"right_children":[2,4,6,8,10,12,14,-1,-1,-1,-1,16,18,20,-1,-1,-1,-1,-1,-1,-1],"split_conditions":[5.516601E0,4.9E0,7.5E0,-6.5E-1,-7.8704E-2,6.180155E0,2.66677E-1,-3.7935182E-2,-2.6804904E-2,-1.1903191E-2,-6.038015E-3,6.25E0,6.57559E0,1.39248E1,4.6436198E-2,3.7067765E-4,4.2855525E-3,8.295372E-3,1.4291494E-2,2.7822023E-2,4.10615E-3],"split_indices":[108,111,2,114,114,108,114,0,0,0,0,2,108,17,0,0,0,0,0,0,0],"split_type":[0,0,0,0,0,0,0,0,0,0,0,0,0,0,0,0,0,0,0,0,0],"sum_hessian":[4.44E2,1.4E2,3.04E2,9.8E1,4.2E1,2.49E2,5.5E1,6.1E1,3.7E1,3.3E1,9E0,9.8E1,1.51E2,4.5E1,1E1,5.6E1,4.2E1,8.1E1,7E1,4.4E1,1E0],"tree_param":{"num_deleted":"0","num_feature":"117","num_nodes":"21","size_leaf_vector":"1"}},{"base_weights":[5.0828527E-3,-5.4729354E-1,2.1429867E-1,-6.693978E-1,-2.8022614E-1,1.1909944E-1,5.175192E-1,-3.6025237E-2,-2.6934376E-2,-9.967218E-3,-3.6728823E-1,-5.094149E-3,1.7221157E-1,1.7067889E-2,6.03745E-1,-1.8985474E-2,-1.7137027E-3,-4.3490287E-3,8.113249E-4,6.0500167E-3,1.2037509E-2,2.4561523E-2,3.658519E-2],"categories":[],"categories_nodes":[],"categories_segments":[],"categories_sizes":[],"default_left":[0,0,0,0,0,0,0,0,0,0,0,0,0,0,0,0,0,0,0,0,0,0,0],"id":26,"left_children":[1,3,5,7,9,11,13,-1,-1,-1,15,17,19,-1,21,-1,-1,-1,-1,-1,-1,-1,-1],"loss_changes":[4.966175E1,3.5654373E0,8.881004E0,2.0370483E-2,1.447475E-1,1.5940776E0,8.234291E-1,0E0,0E0,0E0,1.5907288E-2,1.3418956E-1,5.2436495E-1,0E0,2.0933914E-1,0E0,0E0,0E0,0E0,0E0,0E0,0E0,0E0],"parents":[2147483647,0,0,1,1,2,2,3,3,4,4,5,5,6,6,10,10,11,11,12,12,14,14],"right_children":[2,4,6,8,10,12,14,-1,-1,-1,16,18,20,-1,22,-1,-1,-1,-1,-1,-1,-1,-1],"split_conditions":[5.4E0,-3.569E-1,7.2689E0,-6.60816E-1,1.1928842E6,6.000489E0,-4.1909573E1,-3.6025237E-2,-2.6934376E-2,-9.967218E-3,5.4065E0,5.9E0,6.539E-3,1.7067889E-2,4.8612E-2,-1.8985474E-2,-1.7137027E-3,-4.3490287E-3,8.113249E-4,6.0500167E-3,1.2037509E-2,2.4561523E-2,3.658519E-2],"split_indices":[2,114,6,114,18,108,86,0,0,0,6,2,114,0,114,0,0,0,0,0,0,0,0],"split_type":[0,0,0,0,0,0,0,0,0,0,0,0,0,0,0,0,0,0,0,0,0,0,0],"sum_hessian":[4.28E2,1.17E2,3.11E2,7.9E1,3.8E1,2.38E2,7.3E1,5.3E1,2.6E1,2.2E1,1.6E1,7.1E1,1.67E2,2.6E1,4.7E1,1.5E1,1E0,1.5E1,5.6E1,9.8E1,6.9E1,2.8E1,1.9E1],"tree_param":{"num_deleted":"0","num_feature":"117","num_nodes":"23","size_leaf_vector":"1"}},{"base_weights":[1.1667748E-2,-4.8763764E-1,2.157093E-1,-6.26959E-1,-2.231705E-1,1.381603E-1,5.5604273E-1,-3.474883E-2,-2.5861708E-2,-1.7369947E-1,-1.6575126E-2,4.658334E-2,2.1282056E-1,4.8325258E-1,4.271947E-2,-8.961127E-3,-1.0856295E-3,-4.313062E-5,4.7855168E-3,7.991653E-3,1.303985E-2,3.3894635E-3,2.4415357E-2],"categories":[],"categories_nodes":[],"categories_segments":[],"categories_sizes":[],"default_left":[0,0,0,0,0,0,0,0,0,0,0,0,0,0,0,0,0,0,0,0,0,0,0],"id":27,"left_children":[1,3,5,7,9,11,13,-1,-1,15,-1,17,19,21,-1,-1,-1,-1,-1,-1,-1,-1,-1],"loss_changes":[4.602544E1,4.601885E0,8.325754E0,1.5368652E-1,1.43785E-1,1.7623181E0,7.346363E-1,0E0,0E0,5.3952932E-3,0E0,2.892726E-1,2.8232288E-1,1.628685E-2,0E0,0E0,0E0,0E0,0E0,0E0,0E0,0E0,0E0],"parents":[2147483647,0,0,1,1,2,2,3,3,4,4,5,5,6,6,9,9,11,11,12,12,13,13],"right_children":[2,4,6,8,10,12,14,-1,-1,16,-1,18,20,22,-1,-1,-1,-1,-1,-1,-1,-1,-1],"split_conditions":[5.75E0,4.8351E0,7.5E0,-7.0457E-1,2.4262E0,6.339239E0,2.54345E-1,-3.474883E-2,-2.5861708E-2,2.1876519E5,-1.6575126E-2,6.25E0,1.1581003E1,-5.08633E-1,4.271947E-2,-8.961127E-3,-1.0856295E-3,-4.313062E-5,4.7855168E-3,7.991653E-3,1.303985E-2,3.3894635E-3,2.4415357E-2],"split_indices":[111,8,2,114,116,110,114,0,0,30,0,2,104,114,0,0,0,0,0,0,0,0,0],"split_type":[0,0,0,0,0,0,0,0,0,0,0,0,0,0,0,0,0,0,0,0,0,0,0],"sum_hessian":[4.5E2,1.3E2,3.2E2,8.4E1,4.6E1,2.62E2,5.8E1,4.8E1,3.6E1,3.4E1,1.2E1,1.19E2,1.43E2,4.9E1,9E0,3.2E1,2E0,6E1,5.9E1,7.1E1,7.2E1,1E0,4.8E1],"tree_param":{"num_deleted":"0","num_feature":"117","num_nodes":"23","size_leaf_vector":"1"}},{"base_weights":[2.5442333E-3,-4.7201583E-1,2.021843E-1,-6.028665E-1,-2.2916976E-1,1.13993086E-1,4.784844E-1,-3.279908E-2,-2.4640525E-2,-3.2491735E-1,-8.928736E-3,3.3548076E-2,1.7755091E-1,3.7785584E-1,3.2991543E-2,-1.6888345E-2,-1.4468288E-3,5.624535E-4,6.633422E-3,5.408366E-3,1.0719198E-2,2.1329133E-2,1.3234141E-2],"categories":[],"categories_nodes":[],"categories_segments":[],"categories_sizes":[],"default_left":[0,0,0,0,0,0,0,0,0,0,0,0,0,0,0,0,0,0,0,0,0,0,0],"id":28,"left_children":[1,3,5,7,9,11,13,-1,-1,15,-1,17,19,21,-1,-1,-1,-1,-1,-1,-1,-1,-1],"loss_changes":[4.0333466E1,3.782484E0,7.1963816E0,3.5345078E-2,1.1446881E-1,1.1437898E0,9.608116E-1,0E0,0E0,6.801009E-3,0E0,2.1177527E-1,2.691183E-1,8.817768E-2,0E0,0E0,0E0,0E0,0E0,0E0,0E0,0E0,0E0],"parents":[2147483647,0,0,1,1,2,2,3,3,4,4,5,5,6,6,9,9,11,11,12,12,13,13],"right_children":[2,4,6,8,10,12,14,-1,-1,16,-1,18,20,22,-1,-1,-1,-1,-1,-1,-1,-1,-1],"split_conditions":[5.516601E0,3.960154E0,6.84992E0,-6.67643E-1,5.15E0,6.241857E0,3.0922E-2,-3.279908E-2,-2.4640525E-2,5.5598E0,-8.928736E-3,1.97793E4,-4.4286E-2,1.32642E1,3.2991543E-2,-1.6888345E-2,-1.4468288E-3,5.624535E-4,6.633422E-3,5.408366E-3,1.0719198E-2,2.1329133E-2,1.3234141E-2],"split_indices":[108,109,108,114,111,110,114,0,0,6,0,62,114,17,0,0,0,0,0,0,0,0,0],"split_type":[0,0,0,0,0,0,0,0,0,0,0,0,0,0,0,0,0,0,0,0,0,0,0],"sum_hessian":[4.24E2,1.25E2,2.99E2,8E1,4.5E1,2.28E2,7.1E1,5E1,3E1,1.3E1,3.2E1,1.02E2,1.26E2,4.8E1,2.3E1,1.2E1,1E0,8.5E1,1.7E1,4.6E1,8E1,3.1E1,1.7E1],"tree_param":{"num_deleted":"0","num_feature":"117","num_nodes":"23","size_leaf_vector":"1"}},{"base_weights":[4.916228E-3,-4.9088967E-1,1.9268997E-1,-2.8812474E-2,-2.5257933E-1,1.0084214E-1,4.6121824E-1,-1.594039E-2,-8.912559E-3,-6.945653E-3,1.5048474E-1,2.9094959E-2,3.2684904E-1,-4.9910755E-3,9.906081E-4,5.167633E-3,9.470725E-3,1.6542811E-2,1.6640759E-3],"categories":[],"categories_nodes":[],"categories_segments":[],"categories_sizes":[],"default_left":[0,0,0,0,0,0,0,0,0,0,0,0,0,0,0,0,0,0,0],"id":29,"left_children":[1,3,5,-1,7,9,11,-1,-1,13,15,-1,17,-1,-1,-1,-1,-1,-1],"loss_changes":[4.1028473E1,2.2329693E0,7.7896805E0,0E0,6.0836077E-2,1.2996073E0,1.0324135E0,0E0,0E0,1.988504E-1,2.5389552E-1,0E0,8.058548E-4,0E0,0E0,0E0,0E0,0E0,0E0],"parents":[2147483647,0,0,1,1,2,2,4,4,5,5,6,6,9,9,10,10,12,12],"right_children":[2,4,6,-1,8,10,12,-1,-1,14,16,-1,18,-1,-1,-1,-1,-1,-1],"split_conditions":[5.4E0,3.871178E0,7.2689E0,-2.8812474E-2,3.8096025E5,6.045112E0,6.189178E4,-1.594039E-2,-8.912559E-3,5.9E0,6.426044E0,2.9094959E-2,9.9268625E5,-4.9910755E-3,9.906081E-4,5.167633E-3,9.470725E-3,1.6542811E-2,1.6640759E-3],"split_indices":[113,108,6,0,41,108,24,0,0,111,108,0,25,0,0,0,0,0,0],"split_type":[0,0,0,0,0,0,0,0,0,0,0,0,0,0,0,0,0,0,0],"sum_hessian":[4.39E2,1.2E2,3.19E2,8.7E1,3.3E1,2.39E2,8E1,1.5E1,1.8E1,7.5E1,1.64E2,4E1,4E1,1.7E1,5.8E1,7.7E1,8.7E1,3.9E1,1E0],"tree_param":{"num_deleted":"0","num_feature":"117","num_nodes":"19","size_leaf_vector":"1"}},{"base_weights":[-1.0292062E-2,-4.387119E-1,1.8606554E-1,-5.5762875E-1,-2.1829571E-1,1.0709155E-1,4.2130175E-1,-3.005208E-2,-2.2619497E-2,-1.5777119E-1,-1.6209086E-2,5.482294E-2,1.9609624E-1,3.5944924E-1,3.3120114E-2,-0E0,-8.013654E-3,-9.386646E-4,4.5852847E-3,1.0614832E-2,3.0097004E-3,2.1044997E-2,1.3724508E-2],"categories":[],"categories_nodes":[],"categories_segments":[],"categories_sizes":[],"default_left":[0,0,0,0,0,0,0,0,0,0,0,0,0,0,0,0,0,0,0,0,0,0,0],"id":30,"left_children":[1,3,5,7,9,11,13,-1,-1,15,-1,17,19,21,-1,-1,-1,-1,-1,-1,-1,-1,-1],"loss_changes":[3.7457726E1,3.4702454E0,5.5681925E0,3.3937454E-2,2.2750187E-1,1.0341527E0,7.9307747E-1,0E0,0E0,2.1623373E-3,0E0,4.080363E-1,1.4491177E-1,1.4383888E-1,0E0,0E0,0E0,0E0,0E0,0E0,0E0,0E0,0E0],"parents":[2147483647,0,0,1,1,2,2,3,3,4,4,5,5,6,6,9,9,11,11,12,12,13,13],"right_children":[2,4,6,8,10,12,14,-1,-1,16,-1,18,20,22,-1,-1,-1,-1,-1,-1,-1,-1,-1],"split_conditions":[5.75E0,4.4E0,7.2689E0,-7.0457E-1,6.29008E5,-1.098E-2,1.3626E-1,-3.005208E-2,-2.2619497E-2,4.9E0,-1.6209086E-2,6.25E0,9.973302E1,6.2453E1,3.3120114E-2,-0E0,-8.013654E-3,-9.386646E-4,4.5852847E-3,1.0614832E-2,3.0097004E-3,2.1044997E-2,1.3724508E-2],"split_indices":[2,2,6,114,24,114,114,0,0,2,0,2,103,97,0,0,0,0,0,0,0,0,0],"split_type":[0,0,0,0,0,0,0,0,0,0,0,0,0,0,0,0,0,0,0,0,0,0,0],"sum_hessian":[4.43E2,1.39E2,3.04E2,8.9E1,5E1,2.29E2,7.5E1,5.9E1,3E1,3.4E1,1.6E1,1.46E2,8.3E1,6.2E1,1.3E1,1E0,3.3E1,4.8E1,9.8E1,7.3E1,1E1,3.3E1,2.9E1],"tree_param":{"num_deleted":"0","num_feature":"117","num_nodes":"23","size_leaf_vector":"1"}},{"base_weights":[2.8946286E-3,-4.0459517E-1,1.7934862E-1,-5.197395E-1,-1.853836E-1,9.559137E-2,4.1770583E-1,-2.8129002E-2,-2.104883E-2,-1.3494886E-2,-1.4342412E-1,2.8478477E-2,1.5347521E-1,3.4368995E-1,2.8596124E-2,-7.4191713E-3,-3.865226E-4,-1.024305E-4,3.3270705E-3,5.4040714E-3,9.24361E-3,2.050018E-4,1.7394757E-2],"categories":[],"categories_nodes":[],"categories_segments":[],"categories_sizes":[],"default_left":[0,0,0,0,0,0,0,0,0,0,0,0,0,0,0,0,0,0,0,0,0,0,0],"id":31,"left_children":[1,3,5,7,9,11,13,-1,-1,-1,15,17,19,21,-1,-1,-1,-1,-1,-1,-1,-1,-1],"loss_changes":[3.1903156E1,3.2154293E0,6.0976276E0,3.29113E-2,9.01742E-2,8.7481165E-1,6.250324E-1,0E0,0E0,0E0,6.794691E-3,1.3323823E-1,1.2602639E-1,4.4772625E-2,0E0,0E0,0E0,0E0,0E0,0E0,0E0,0E0,0E0],"parents":[2147483647,0,0,1,1,2,2,3,3,4,4,5,5,6,6,10,10,11,11,12,12,13,13],"right_children":[2,4,6,8,10,12,14,-1,-1,-1,16,18,20,22,-1,-1,-1,-1,-1,-1,-1,-1,-1],"split_conditions":[5.75E0,4.8351E0,6.811439E0,9.525914E0,5.15E0,6.241857E0,8.03412E1,-2.8129002E-2,-2.104883E-2,-1.3494886E-2,2.1876519E5,6.25E0,3.9E5,8.721321E0,2.8596124E-2,-7.4191713E-3,-3.865226E-4,-1.024305E-4,3.3270705E-3,5.4040714E-3,9.24361E-3,2.050018E-4,1.7394757E-2],"split_indices":[2,8,109,105,111,110,11,0,0,0,30,2,40,103,0,0,0,0,0,0,0,0,0],"split_type":[0,0,0,0,0,0,0,0,0,0,0,0,0,0,0,0,0,0,0,0,0,0,0],"sum_hessian":[4.42E2,1.33E2,3.09E2,8.6E1,4.7E1,2.3E2,7.9E1,5.6E1,3E1,1.3E1,3.4E1,1.08E2,1.22E2,5.6E1,2.3E1,3.2E1,2E0,5.9E1,4.9E1,5.3E1,6.9E1,1E0,5.5E1],"tree_param":{"num_deleted":"0","num_feature":"117","num_nodes":"23","size_leaf_vector":"1"}},{"base_weights":[5.588968E-3,-4.1325602E-1,1.5546967E-1,-4.9670562E-1,-1.9689947E-1,7.387607E-2,3.575637E-1,-2.677448E-2,-1.9436454E-2,-5.668366E-3,-2.2757278E-1,-1.43458545E-2,1.22278206E-1,3.155474E-1,3.145897E-2,-1.1731486E-2,-0E0,-4.576796E-3,4.39967E-4,4.44827E-3,1.0172027E-2,1.1493099E-2,1.8468458E-2],"categories":[],"categories_nodes":[],"categories_segments":[],"categories_sizes":[],"default_left":[0,0,0,0,0,0,0,0,0,0,0,0,0,0,0,0,0,0,0,0,0,0,0],"id":32,"left_children":[1,3,5,7,9,11,13,-1,-1,-1,15,17,19,21,-1,-1,-1,-1,-1,-1,-1,-1,-1],"loss_changes":[2.7409145E1,1.9091492E0,5.2400856E0,4.2812347E-2,2.7221918E-2,9.989475E-1,7.569208E-1,0E0,0E0,0E0,1.9968629E-2,1.5557858E-1,3.58222E-1,2.333355E-1,0E0,0E0,0E0,0E0,0E0,0E0,0E0,0E0,0E0],"parents":[2147483647,0,0,1,1,2,2,3,3,4,4,5,5,6,6,10,10,11,11,12,12,13,13],"right_children":[2,4,6,8,10,12,14,-1,-1,-1,16,18,20,22,-1,-1,-1,-1,-1,-1,-1,-1,-1],"split_conditions":[5.4E0,-3.44673E-1,2.15E1,-6.5E-1,2.284891E6,6.045112E0,2.24104E-1,-2.677448E-2,-1.9436454E-2,-5.668366E-3,4.92E0,5.72157E0,1E-1,7.5E0,3.145897E-2,-1.1731486E-2,-0E0,-4.576796E-3,4.39967E-4,4.44827E-3,1.0172027E-2,1.1493099E-2,1.8468458E-2],"split_indices":[2,114,1,114,56,108,114,0,0,0,13,108,114,2,0,0,0,0,0,0,0,0,0],"split_type":[0,0,0,0,0,0,0,0,0,0,0,0,0,0,0,0,0,0,0,0,0,0,0],"sum_hessian":[4.35E2,1.14E2,3.21E2,8.1E1,3.3E1,2.3E2,9.1E1,5.6E1,2.5E1,1.1E1,2.2E1,8.1E1,1.49E2,8.1E1,1E1,2.1E1,1E0,1.9E1,6.2E1,1.08E2,4.1E1,3.4E1,4.7E1],"tree_param":{"num_deleted":"0","num_feature":"117","num_nodes":"23","size_leaf_vector":"1"}},{"base_weights":[8.203123E-3,-3.7117907E-1,1.6506498E-1,-4.561085E-1,-1.5092602E-1,1.0241522E-1,4.3347043E-1,-2.5296647E-2,-1.8019421E-2,-1.7983419E-1,-9.87551E-2,3.267138E-2,1.588522E-1,1.841471E-2,3.3765186E-2,-9.213189E-3,-0E0,-5.1041124E-3,-0E0,-2.4773492E-4,3.5082703E-3,6.1924974E-3,1.0254107E-2],"categories":[],"categories_nodes":[],"categories_segments":[],"categories_sizes":[],"default_left":[0,0,0,0,0,0,0,0,0,0,0,0,0,0,0,0,0,0,0,0,0,0,0],"id":33,"left_children":[1,3,5,7,9,11,13,-1,-1,15,17,19,21,-1,-1,-1,-1,-1,-1,-1,-1,-1,-1],"loss_changes":[2.6463362E1,2.3022346E0,5.1989117E0,1.7457008E-1,1.1691809E-2,9.872432E-1,5.7687473E-1,0E0,0E0,1.5285015E-3,9.3887746E-4,1.7192681E-1,1.6986704E-1,0E0,0E0,0E0,0E0,0E0,0E0,0E0,0E0,0E0,0E0],"parents":[2147483647,0,0,1,1,2,2,3,3,4,4,5,5,6,6,9,9,10,10,11,11,12,12],"right_children":[2,4,6,8,10,12,14,-1,-1,16,18,20,22,-1,-1,-1,-1,-1,-1,-1,-1,-1,-1],"split_conditions":[5.75E0,4.9E0,7.5E0,-6.5E-1,-1.71221E-1,6.320323E0,2.66677E-1,-2.5296647E-2,-1.8019421E-2,1.1939639E6,5.6287E0,6.25E0,6.9221E0,1.841471E-2,3.3765186E-2,-9.213189E-3,-0E0,-5.1041124E-3,-0E0,-2.4773492E-4,3.5082703E-3,6.1924974E-3,1.0254107E-2],"split_indices":[2,2,2,114,114,110,114,0,0,60,6,2,6,0,0,0,0,0,0,0,0,0,0],"split_type":[0,0,0,0,0,0,0,0,0,0,0,0,0,0,0,0,0,0,0,0,0,0,0],"sum_hessian":[4.43E2,1.29E2,3.14E2,9.2E1,3.7E1,2.56E2,5.8E1,5.7E1,3.5E1,2.1E1,1.6E1,1.16E2,1.4E2,4.8E1,1E1,2E1,1E0,1.5E1,1E0,5.7E1,5.9E1,8.3E1,5.7E1],"tree_param":{"num_deleted":"0","num_feature":"117","num_nodes":"23","size_leaf_vector":"1"}},{"base_weights":[-3.7292E-4,-3.5219648E-1,1.4499635E-1,-4.4947058E-1,-1.7137761E-1,7.096926E-2,3.0808964E-1,-2.5111651E-2,-1.82967E-2,-1.2840122E-2,-1.4011022E-1,4.146434E-2,1.8281077E-1,1.1348508E-2,4.1476023E-1,-0E0,-7.1280957E-3,-7.806883E-4,3.475339E-3,1.6309967E-3,9.756517E-3,3.101697E-3,2.149276E-2],"categories":[],"categories_nodes":[],"categories_segments":[],"categories_sizes":[],"default_left":[0,0,0,0,0,0,0,0,0,0,0,0,0,0,0,0,0,0,0,0,0,0,0],"id":34,"left_children":[1,3,5,7,9,11,13,-1,-1,-1,15,17,19,-1,21,-1,-1,-1,-1,-1,-1,-1,-1],"loss_changes":[2.1501263E1,2.024332E0,3.5260053E0,7.759857E-2,4.4523597E-2,6.4976656E-1,6.3777065E-1,0E0,0E0,0E0,4.624903E-3,2.7057508E-1,4.8571825E-2,0E0,1.2647247E-1,0E0,0E0,0E0,0E0,0E0,0E0,0E0,0E0],"parents":[2147483647,0,0,1,1,2,2,3,3,4,4,5,5,6,6,10,10,11,11,12,12,14,14],"right_children":[2,4,6,8,10,12,14,-1,-1,-1,16,18,20,-1,22,-1,-1,-1,-1,-1,-1,-1,-1],"split_conditions":[6E0,-3.12981E-1,2.15E1,-7.19234E-1,4.9E0,9.477E-2,9E0,-2.5111651E-2,-1.82967E-2,-1.2840122E-2,5.15E0,6.25E0,5.120263E0,1.1348508E-2,-3.20294E-1,-0E0,-7.1280957E-3,-7.806883E-4,3.475339E-3,1.6309967E-3,9.756517E-3,3.101697E-3,2.149276E-2],"split_indices":[4,114,1,114,111,114,4,0,0,0,4,111,104,0,114,0,0,0,0,0,0,0,0],"split_type":[0,0,0,0,0,0,0,0,0,0,0,0,0,0,0,0,0,0,0,0,0,0,0],"sum_hessian":[4.18E2,1.22E2,2.96E2,7.8E1,4.4E1,2.05E2,9.1E1,4.4E1,3.4E1,9E0,3.5E1,1.64E2,4.1E1,5.4E1,3.7E1,1E0,3.4E1,5.3E1,1.11E2,4E0,3.7E1,2E0,3.5E1],"tree_param":{"num_deleted":"0","num_feature":"117","num_nodes":"23","size_leaf_vector":"1"}},{"base_weights":[-2.419951E-3,-3.5093164E-1,1.3754581E-1,-4.312261E-1,-1.8191913E-1,7.356235E-2,3.3296862E-1,-2.189416E-2,-7.931046E-3,-2.3963124E-1,-1.2890187E-1,-1.11205075E-2,1.0606163E-1,2.82494E-1,3.0511064E-2,-1.2363757E-2,-5.1031075E-5,-0E0,-6.594294E-3,-2.598923E-3,3.688153E-4,3.9258595E-3,9.175184E-3,1.6226668E-2,9.299069E-3],"categories":[],"categories_nodes":[],"categories_segments":[],"categories_sizes":[],"default_left":[0,0,0,0,0,0,0,0,0,0,0,0,0,0,0,0,0,0,0,0,0,0,0,0,0],"id":35,"left_children":[1,3,5,7,9,11,13,-1,-1,15,17,19,21,23,-1,-1,-1,-1,-1,-1,-1,-1,-1,-1,-1],"loss_changes":[2.2118034E1,1.6244373E0,3.973589E0,2.8776169E-2,6.688619E-2,6.8494594E-1,8.4388924E-1,0E0,0E0,9.572387E-3,2.8392375E-3,5.6234073E-2,3.3908105E-1,1.6854668E-1,0E0,0E0,0E0,0E0,0E0,0E0,0E0,0E0,0E0,0E0,0E0],"parents":[2147483647,0,0,1,1,2,2,3,3,4,4,5,5,6,6,9,9,10,10,11,11,12,12,13,13],"right_children":[2,4,6,8,10,12,14,-1,-1,16,18,20,22,24,-1,-1,-1,-1,-1,-1,-1,-1,-1,-1,-1],"split_conditions":[5.318414E0,4.4E0,7.2274E0,-3.569E-1,1.9044881E5,6.119945E-1,2.66677E-1,-2.189416E-2,-7.931046E-3,5.5598E0,4.9E0,6.2239E0,1.14593E-1,1.32828E1,3.0511064E-2,-1.2363757E-2,-5.1031075E-5,-0E0,-6.594294E-3,-2.598923E-3,3.688153E-4,3.9258595E-3,9.175184E-3,1.6226668E-2,9.299069E-3],"split_indices":[108,2,6,114,42,99,114,0,0,6,2,7,114,17,0,0,0,0,0,0,0,0,0,0,0],"split_type":[0,0,0,0,0,0,0,0,0,0,0,0,0,0,0,0,0,0,0,0,0,0,0,0,0],"sum_hessian":[4.51E2,1.29E2,3.22E2,8.6E1,4.3E1,2.44E2,7.8E1,8.3E1,3E0,1.8E1,2.5E1,6.7E1,1.77E2,6.8E1,1E1,1.7E1,1E0,1E0,2.4E1,2.2E1,4.5E1,1.33E2,4.4E1,4.5E1,2.3E1],"tree_param":{"num_deleted":"0","num_feature":"117","num_nodes":"25","size_leaf_vector":"1"}},{"base_weights":[3.8379957E-3,-3.1075922E-1,1.3607605E-1,-4.0401635E-1,-1.4631341E-1,8.739441E-2,3.7962803E-1,-2.102033E-2,-1.2545747E-2,-1.8866704E-1,-9.774417E-2,3.8827022E-3,1.2596837E-1,3.2291156E-1,3.1580757E-2,-9.7254515E-3,-0E0,-5.1428457E-3,-0E0,-6.850306E-4,1.7251194E-3,5.030911E-3,9.901772E-3,5.3403342E-5,1.6402295E-2],"categories":[],"categories_nodes":[],"categories_segments":[],"categories_sizes":[],"default_left":[0,0,0,0,0,0,0,0,0,0,0,0,0,0,0,0,0,0,0,0,0,0,0,0,0],"id":36,"left_children":[1,3,5,7,9,11,13,-1,-1,15,17,19,21,23,-1,-1,-1,-1,-1,-1,-1,-1,-1,-1,-1],"loss_changes":[1.8287975E1,1.8795004E0,3.5956388E0,3.314972E-2,5.371487E-2,8.2408357E-1,4.2947388E-1,0E0,0E0,1.589042E-2,5.5070817E-3,4.777811E-2,2.7357197E-1,3.9445877E-2,0E0,0E0,0E0,0E0,0E0,0E0,0E0,0E0,0E0,0E0,0E0],"parents":[2147483647,0,0,1,1,2,2,3,3,4,4,5,5,6,6,9,9,10,10,11,11,12,12,13,13],"right_children":[2,4,6,8,10,12,14,-1,-1,16,18,20,22,24,-1,-1,-1,-1,-1,-1,-1,-1,-1,-1,-1],"split_conditions":[5.516601E0,3.9799E0,7.347238E0,-5.25466E-1,5.016792E0,6.115878E0,3.4992E-1,-2.102033E-2,-1.2545747E-2,5.9896E0,-3.8671E-2,6.25E0,1.14593E-1,2.3694E4,3.1580757E-2,-9.7254515E-3,-0E0,-5.1428457E-3,-0E0,-6.850306E-4,1.7251194E-3,5.030911E-3,9.901772E-3,5.3403342E-5,1.6402295E-2],"split_indices":[108,6,108,114,110,110,114,0,0,7,114,2,114,62,0,0,0,0,0,0,0,0,0,0,0],"split_type":[0,0,0,0,0,0,0,0,0,0,0,0,0,0,0,0,0,0,0,0,0,0,0,0,0],"sum_hessian":[4.38E2,1.29E2,3.09E2,8.1E1,4.8E1,2.59E2,5E1,7.1E1,1E1,2.3E1,2.5E1,8.3E1,1.76E2,4.3E1,7E0,2.2E1,1E0,2.3E1,2E0,5.1E1,3.2E1,1.33E2,4.3E1,1E0,4.2E1],"tree_param":{"num_deleted":"0","num_feature":"117","num_nodes":"25","size_leaf_vector":"1"}},{"base_weights":[2.9556302E-3,-2.998884E-1,1.3348481E-1,-3.739712E-1,-1.2390048E-1,8.8023305E-2,3.7487033E-1,-2.1683613E-2,-1.54063525E-2,-6.3101514E-3,-0E0,3.7120868E-2,1.462668E-1,3.139742E-1,2.9637827E-2,-0E0,3.093127E-3,9.517043E-3,5.8941687E-3,2.298608E-3,1.621191E-2],"categories":[],"categories_nodes":[],"categories_segments":[],"categories_sizes":[],"default_left":[0,0,0,0,0,0,0,0,0,0,0,0,0,0,0,0,0,0,0,0,0],"id":37,"left_children":[1,3,5,7,9,11,13,-1,-1,-1,-1,15,17,19,-1,-1,-1,-1,-1,-1,-1],"loss_changes":[1.7337523E1,1.6248493E0,3.2896538E0,1.5384388E-1,7.683754E-3,7.470629E-1,3.601017E-1,0E0,0E0,0E0,0E0,1.3100056E-1,9.6856594E-2,5.810404E-2,0E0,0E0,0E0,0E0,0E0,0E0,0E0],"parents":[2147483647,0,0,1,1,2,2,3,3,4,4,5,5,6,6,11,11,12,12,13,13],"right_children":[2,4,6,8,10,12,14,-1,-1,-1,-1,16,18,20,-1,-1,-1,-1,-1,-1,-1],"split_conditions":[5.516601E0,4.9E0,7.75E0,-7.34069E-1,8.3504194E5,6.410766E0,3.4992E-1,-2.1683613E-2,-1.54063525E-2,-6.3101514E-3,-0E0,6.25E0,2.3870418E6,-3.20294E-1,2.9637827E-2,-0E0,3.093127E-3,9.517043E-3,5.8941687E-3,2.298608E-3,1.621191E-2],"split_indices":[108,2,2,114,21,108,114,0,0,0,0,2,65,114,0,0,0,0,0,0,0],"split_type":[0,0,0,0,0,0,0,0,0,0,0,0,0,0,0,0,0,0,0,0,0],"sum_hessian":[4.37E2,1.31E2,3.06E2,9.1E1,4E1,2.59E2,4.7E1,4.4E1,4.7E1,3.9E1,1E0,1.4E2,1.19E2,3.9E1,8E0,5.6E1,8.4E1,4.3E1,7.6E1,2E0,3.7E1],"tree_param":{"num_deleted":"0","num_feature":"117","num_nodes":"21","size_leaf_vector":"1"}},{"base_weights":[2.8807996E-3,-2.947674E-1,1.256978E-1,-3.60981E-1,-1.19458824E-1,8.277776E-2,3.5145846E-1,-1.9617772E-2,-1.3792246E-2,-1.24276064E-1,-0E0,1.8157005E-2,1.2774858E-1,3.0036408E-1,2.6702985E-2,-2.722546E-3,-6.810812E-3,-1.1360796E-4,3.2427923E-3,9.21053E-3,5.129002E-3,2.2219801E-3,1.5489242E-2],"categories":[],"categories_nodes":[],"categories_segments":[],"categories_sizes":[],"default_left":[0,0,0,0,0,0,0,0,0,0,0,0,0,0,0,0,0,0,0,0,0,0,0],"id":38,"left_children":[1,3,5,7,9,11,13,-1,-1,15,-1,17,19,21,-1,-1,-1,-1,-1,-1,-1,-1,-1],"loss_changes":[1.6031786E1,1.3946333E0,2.940967E0,7.069111E-2,1.2553632E-2,7.473805E-1,2.1330976E-1,0E0,0E0,2.6965141E-3,0E0,1.11347735E-1,1.7126894E-1,4.9661875E-2,0E0,0E0,0E0,0E0,0E0,0E0,0E0,0E0,0E0],"parents":[2147483647,0,0,1,1,2,2,3,3,4,4,5,5,6,6,9,9,11,11,12,12,13,13],"right_children":[2,4,6,8,10,12,14,-1,-1,16,-1,18,20,22,-1,-1,-1,-1,-1,-1,-1,-1,-1],"split_conditions":[5.451005E0,4.9E0,7.75E0,-5.90726E-1,-5.2652E4,6.5E0,2.66677E-1,-1.9617772E-2,-1.3792246E-2,6.991438E3,-0E0,-1.395E4,2.3870418E6,-3.20294E-1,2.6702985E-2,-2.722546E-3,-6.810812E-3,-1.1360796E-4,3.2427923E-3,9.21053E-3,5.129002E-3,2.2219801E-3,1.5489242E-2],"split_indices":[108,2,2,114,62,2,114,0,0,50,0,62,65,114,0,0,0,0,0,0,0,0,0],"split_type":[0,0,0,0,0,0,0,0,0,0,0,0,0,0,0,0,0,0,0,0,0,0,0],"sum_hessian":[4.37E2,1.27E2,3.1E2,9.1E1,3.6E1,2.62E2,4.8E1,6.3E1,2.8E1,3.4E1,2E0,1.09E2,1.53E2,4E1,8E0,7E0,2.7E1,7.5E1,3.4E1,4.4E1,1.09E2,2E0,3.8E1],"tree_param":{"num_deleted":"0","num_feature":"117","num_nodes":"23","size_leaf_vector":"1"}},{"base_weights":[1.6357452E-3,-2.7159622E-1,1.2705307E-1,-1.3894358E-1,-3.5151732E-1,8.178434E-2,3.4583715E-1,-1.9111268E-1,-1.01666115E-1,-1.9932995E-2,-1.4849583E-2,3.580735E-2,1.3103512E-1,2.9030818E-1,2.7154753E-2,-9.866658E-3,-0E0,-5.3606457E-3,-4.8243284E-4,-0E0,3.0343733E-3,5.4688714E-3,9.465196E-3,1.4762521E-2,-0E0],"categories":[],"categories_nodes":[],"categories_segments":[],"categories_sizes":[],"default_left":[0,0,0,0,0,0,0,0,0,0,0,0,0,0,0,0,0,0,0,0,0,0,0,0,0],"id":39,"left_children":[1,3,5,7,9,11,13,15,17,-1,-1,19,21,23,-1,-1,-1,-1,-1,-1,-1,-1,-1,-1,-1],"loss_changes":[1.4172746E1,1.2803383E0,2.7417116E0,5.047375E-2,1.76754E-2,5.1528716E-1,2.847638E-1,6.96975E-3,4.122615E-3,0E0,0E0,1.12268865E-1,9.202838E-2,2.8585672E-2,0E0,0E0,0E0,0E0,0E0,0E0,0E0,0E0,0E0,0E0,0E0],"parents":[2147483647,0,0,1,1,2,2,3,3,4,4,5,5,6,6,7,7,8,8,11,11,12,12,13,13],"right_children":[2,4,6,8,10,12,14,16,18,-1,-1,20,22,24,-1,-1,-1,-1,-1,-1,-1,-1,-1,-1,-1],"split_conditions":[5.75E0,8.3054E1,7.75E0,5.15E0,-7.50708E-1,6.410766E0,3.4992E-1,5.9099E0,5.0610028E5,-1.9932995E-2,-1.4849583E-2,6.25E0,1.37447E-1,1.37156E1,2.7154753E-2,-9.866658E-3,-0E0,-5.3606457E-3,-4.8243284E-4,-0E0,3.0343733E-3,5.4688714E-3,9.465196E-3,1.4762521E-2,-0E0],"split_indices":[2,11,2,111,114,108,114,7,41,0,0,2,114,17,0,0,0,0,0,0,0,0,0,0,0],"split_type":[0,0,0,0,0,0,0,0,0,0,0,0,0,0,0,0,0,0,0,0,0,0,0,0,0],"sum_hessian":[4.12E2,1.29E2,2.83E2,5E1,7.9E1,2.36E2,4.7E1,1.8E1,3.2E1,3.8E1,4.1E1,1.24E2,1.12E2,3.9E1,8E0,1.7E1,1E0,2.9E1,3E0,5.1E1,7.3E1,8.5E1,2.7E1,3.8E1,1E0],"tree_param":{"num_deleted":"0","num_feature":"117","num_nodes":"25","size_leaf_vector":"1"}},{"base_weights":[2.1689122E-3,-2.6030087E-1,1.1192124E-1,-3.2061672E-1,-1.1187201E-1,5.3614262E-2,2.4443822E-1,-1.7767334E-2,-1.234151E-2,-7.0210816E-3,-7.5952254E-2,3.0397665E-2,1.4344814E-1,1.9003408E-1,3.4389058E-1,-0E0,-3.9092037E-3,-6.169946E-4,2.4592092E-3,7.407853E-3,-0E0,1.1638682E-2,7.1896138E-3,1.7527848E-2,1.0974741E-3],"categories":[],"categories_nodes":[],"categories_segments":[],"categories_sizes":[],"default_left":[0,0,0,0,0,0,0,0,0,0,0,0,0,0,0,0,0,0,0,0,0,0,0,0,0],"id":40,"left_children":[1,3,5,7,9,11,13,-1,-1,-1,15,17,19,21,23,-1,-1,-1,-1,-1,-1,-1,-1,-1,-1],"loss_changes":[1.251639E1,1.0668173E0,2.3291757E0,8.270645E-2,7.691592E-3,4.2666698E-1,3.8444424E-1,0E0,0E0,0E0,1.111351E-3,1.4319131E-1,1.514411E-2,5.3382635E-2,2.1586418E-2,0E0,0E0,0E0,0E0,0E0,0E0,0E0,0E0,0E0,0E0],"parents":[2147483647,0,0,1,1,2,2,3,3,4,4,5,5,6,6,10,10,11,11,12,12,13,13,14,14],"right_children":[2,4,6,8,10,12,14,-1,-1,-1,16,18,20,22,24,-1,-1,-1,-1,-1,-1,-1,-1,-1,-1],"split_conditions":[5.516601E0,5.15E0,2.15E1,-5.90726E-1,1.28942E4,1E-1,6.589655E3,-1.7767334E-2,-1.234151E-2,-7.0210816E-3,2.742412E0,6.25E0,1.543E6,5.272E-1,1.303E2,-0E0,-3.9092037E-3,-6.169946E-4,2.4592092E-3,7.407853E-3,-0E0,1.1638682E-2,7.1896138E-3,1.7527848E-2,1.0974741E-3],"split_indices":[108,4,1,114,49,114,33,0,0,0,14,111,40,116,74,0,0,0,0,0,0,0,0,0,0],"split_type":[0,0,0,0,0,0,0,0,0,0,0,0,0,0,0,0,0,0,0,0,0,0,0,0,0],"sum_hessian":[4.33E2,1.27E2,3.06E2,8.9E1,3.8E1,2.14E2,9.2E1,5.7E1,3.2E1,1.8E1,2E1,1.72E2,4.2E1,6.2E1,3E1,1E0,1.9E1,5.1E1,1.21E2,4E1,2E0,2.9E1,3.3E1,2.9E1,1E0],"tree_param":{"num_deleted":"0","num_feature":"117","num_nodes":"25","size_leaf_vector":"1"}},{"base_weights":[-4.426656E-3,-2.70549E-1,9.885649E-2,-1.6056102E-2,-1.3663298E-1,5.054252E-2,2.7284652E-1,-1.2496319E-3,-1.4668201E-1,-1.4750202E-2,7.827614E-2,3.7688032E-1,2.0526262E-1,-7.6905005E-3,-0E0,-1.9229128E-3,1.2120025E-3,6.003072E-4,4.6677417E-3,1.4338163E-2,2.366898E-2,1.0411441E-2,-0E0],"categories":[],"categories_nodes":[],"categories_segments":[],"categories_sizes":[],"default_left":[0,0,0,0,0,0,0,0,0,0,0,0,0,0,0,0,0,0,0,0,0,0,0],"id":41,"left_children":[1,3,5,-1,7,9,11,-1,13,15,17,19,21,-1,-1,-1,-1,-1,-1,-1,-1,-1,-1],"loss_changes":[1.2082761E1,7.43371E-1,2.610214E0,0E0,1.9554138E-2,4.5839733E-1,3.4253502E-1,0E0,2.122593E-2,7.075839E-2,1.6421366E-1,5.6438446E-3,1.0606885E-2,0E0,0E0,0E0,0E0,0E0,0E0,0E0,0E0,0E0,0E0],"parents":[2147483647,0,0,1,1,2,2,4,4,5,5,6,6,8,8,9,9,10,10,11,11,12,12],"right_children":[2,4,6,-1,8,10,12,-1,14,16,18,20,22,-1,-1,-1,-1,-1,-1,-1,-1,-1,-1],"split_conditions":[5.4E0,3.960154E0,7.25E0,-1.6056102E-2,6.991438E3,6.25E0,1.206E2,-1.2496319E-3,5.9099E0,-3.4692E4,4.086105E3,7.28104E3,6.971382E4,-7.6905005E-3,-0E0,-1.9229128E-3,1.2120025E-3,6.003072E-4,4.6677417E-3,1.4338163E-2,2.366898E-2,1.0411441E-2,-0E0],"split_indices":[111,109,111,0,50,111,74,0,7,63,33,33,45,0,0,0,0,0,0,0,0,0,0],"split_type":[0,0,0,0,0,0,0,0,0,0,0,0,0,0,0,0,0,0,0,0,0,0,0],"sum_hessian":[4.37E2,1.22E2,3.15E2,8.7E1,3.5E1,2.48E2,6.7E1,4E0,3.1E1,7.3E1,1.75E2,2.4E1,4.3E1,2.9E1,2E0,4.7E1,2.6E1,3.4E1,1.41E2,1.5E1,9E0,4.2E1,1E0],"tree_param":{"num_deleted":"0","num_feature":"117","num_nodes":"23","size_leaf_vector":"1"}},{"base_weights":[-2.0011682E-3,-2.3337427E-1,1.0263498E-1,-2.9772228E-1,-1.0969373E-1,5.3580794E-2,2.4648583E-1,-1.748786E-2,-1.2783356E-2,-6.531638E-3,-6.0819145E-2,4.775351E-3,8.8546805E-2,2.0932393E-1,2.30411E-2,-3.4388031E-3,-0E0,-1.3999412E-3,1.1837258E-3,9.6451025E-4,5.353395E-3,6.842357E-3,1.2764277E-2],"categories":[],"categories_nodes":[],"categories_segments":[],"categories_sizes":[],"default_left":[0,0,0,0,0,0,0,0,0,0,0,0,0,0,0,0,0,0,0,0,0,0,0],"id":42,"left_children":[1,3,5,7,9,11,13,-1,-1,-1,15,17,19,21,-1,-1,-1,-1,-1,-1,-1,-1,-1],"loss_changes":[1.0641002E1,1.0169282E0,2.0878448E0,4.4798374E-2,2.3055732E-2,3.776276E-1,4.4187498E-1,0E0,0E0,0E0,4.3707713E-3,6.031267E-2,1.5333354E-1,1.4903879E-1,0E0,0E0,0E0,0E0,0E0,0E0,0E0,0E0,0E0],"parents":[2147483647,0,0,1,1,2,2,3,3,4,4,5,5,6,6,10,10,11,11,12,12,13,13],"right_children":[2,4,6,8,10,12,14,-1,-1,-1,16,18,20,22,-1,-1,-1,-1,-1,-1,-1,-1,-1],"split_conditions":[5.75E0,-3.44673E-1,6.880257E0,-7.50708E-1,-1.1E-1,-8.9234E-2,2.66677E-1,-1.748786E-2,-1.2783356E-2,-6.531638E-3,6.13E5,6.1776E0,6.25E0,-1.09658E-1,2.30411E-2,-3.4388031E-3,-0E0,-1.3999412E-3,1.1837258E-3,9.6451025E-4,5.353395E-3,6.842357E-3,1.2764277E-2],"split_indices":[2,114,109,114,114,114,114,0,0,0,40,6,2,114,0,0,0,0,0,0,0,0,0],"split_type":[0,0,0,0,0,0,0,0,0,0,0,0,0,0,0,0,0,0,0,0,0,0,0],"sum_hessian":[4.37E2,1.36E2,3.01E2,8.8E1,4.8E1,2.26E2,7.5E1,3.5E1,5.3E1,3.1E1,1.7E1,9.6E1,1.3E2,6.6E1,9E0,1.4E1,3E0,3.3E1,6.3E1,2.9E1,1.01E2,2.8E1,3.8E1],"tree_param":{"num_deleted":"0","num_feature":"117","num_nodes":"23","size_leaf_vector":"1"}},{"base_weights":[-0E0,-2.2643767E-1,1.0140958E-1,-2.8641415E-1,-1.0719583E-1,5.7564374E-2,2.2856432E-1,-1.5277594E-2,-1.052834E-2,-1.3147058E-1,-6.28514E-2,2.2828246E-3,7.659647E-2,1.4466639E-1,2.8092366E-1,-6.8032877E-3,-0E0,-3.2387318E-3,-0E0,-1.0635513E-3,1.0101002E-3,2.794896E-3,4.952831E-3,7.3523405E-3,-0E0,1.06558995E-2,1.7501242E-2],"categories":[],"categories_nodes":[],"categories_segments":[],"categories_sizes":[],"default_left":[0,0,0,0,0,0,0,0,0,0,0,0,0,0,0,0,0,0,0,0,0,0,0,0,0,0,0],"id":43,"left_children":[1,3,5,7,9,11,13,-1,-1,15,17,19,21,23,25,-1,-1,-1,-1,-1,-1,-1,-1,-1,-1,-1,-1],"loss_changes":[9.95589E0,8.8826513E-1,1.6307681E0,1.178503E-2,2.289784E-2,2.2866505E-1,2.506566E-1,0E0,0E0,1.590857E-2,7.1334094E-4,2.5646755E-2,5.613959E-2,5.98073E-4,7.993436E-2,0E0,0E0,0E0,0E0,0E0,0E0,0E0,0E0,0E0,0E0,0E0,0E0],"parents":[2147483647,0,0,1,1,2,2,3,3,4,4,5,5,6,6,9,9,10,10,11,11,12,12,13,13,14,14],"right_children":[2,4,6,8,10,12,14,-1,-1,16,18,20,22,24,26,-1,-1,-1,-1,-1,-1,-1,-1,-1,-1,-1,-1],"split_conditions":[5.516601E0,4.8351E0,7.2689E0,3.418952E0,1.28942E4,5.563075E-1,5.04874E5,-1.5277594E-2,-1.052834E-2,5.99812E0,3.6842097E5,5.896272E0,6.461329E0,6.971382E4,3.4199548E3,-6.8032877E-3,-0E0,-3.2387318E-3,-0E0,-1.0635513E-3,1.0101002E-3,2.794896E-3,4.952831E-3,7.3523405E-3,-0E0,1.06558995E-2,1.7501242E-2],"split_indices":[108,8,6,110,49,99,60,0,0,12,42,110,110,45,22,0,0,0,0,0,0,0,0,0,0,0,0],"split_type":[0,0,0,0,0,0,0,0,0,0,0,0,0,0,0,0,0,0,0,0,0,0,0,0,0,0,0],"sum_hessian":[4.32E2,1.33E2,2.99E2,8.7E1,4.6E1,2.24E2,7.5E1,6.6E1,2.1E1,2.7E1,1.9E1,5.9E1,1.65E2,3.1E1,4.4E1,2.6E1,1E0,1.8E1,1E0,2.3E1,3.6E1,9E1,7.5E1,3E1,1E0,2.5E1,1.9E1],"tree_param":{"num_deleted":"0","num_feature":"117","num_nodes":"27","size_leaf_vector":"1"}},{"base_weights":[-2.5959467E-3,-2.2931784E-1,8.515951E-2,-1.4019099E-2,-1.278757E-1,2.1594207E-1,4.476847E-2,-7.541587E-2,-1.5772575E-1,1.4005584E-2,1.5991633E-1,-2.9954766E-3,6.74736E-2,-0E0,-3.970837E-3,-8.094647E-3,-0E0,1.3792324E-3,8.359885E-3,-6.6349993E-4,4.864084E-3,2.3494202E-3,4.8483564E-3],"categories":[],"categories_nodes":[],"categories_segments":[],"categories_sizes":[],"default_left":[0,0,0,0,0,0,0,0,0,0,0,0,0,0,0,0,0,0,0,0,0,0,0],"id":44,"left_children":[1,3,5,-1,7,9,11,13,15,-1,17,19,21,-1,-1,-1,-1,-1,-1,-1,-1,-1,-1],"loss_changes":[8.191339E0,5.1902676E-1,1.5278647E0,0E0,2.8993905E-2,1.5926838E-1,2.5391284E-1,4.843369E-3,5.7564974E-3,0E0,1.4451861E-2,6.8101645E-2,7.530028E-2,0E0,0E0,0E0,0E0,0E0,0E0,0E0,0E0,0E0,0E0],"parents":[2147483647,0,0,1,1,2,2,4,4,5,5,6,6,7,7,8,8,10,10,11,11,12,12],"right_children":[2,4,6,-1,8,10,12,14,16,-1,18,20,22,-1,-1,-1,-1,-1,-1,-1,-1,-1,-1],"split_conditions":[5.4E0,3.631609E0,2.0984736E4,-1.4019099E-2,3.5529652E6,1.209E2,6.000489E0,4.9E0,5.9099E0,1.4005584E-2,1.4581E4,4.8570277E4,6.499699E0,-0E0,-3.970837E-3,-8.094647E-3,-0E0,1.3792324E-3,8.359885E-3,-6.6349993E-4,4.864084E-3,2.3494202E-3,4.8483564E-3],"split_indices":[111,108,23,0,65,74,108,2,7,0,68,23,108,0,0,0,0,0,0,0,0,0,0],"split_type":[0,0,0,0,0,0,0,0,0,0,0,0,0,0,0,0,0,0,0,0,0,0,0],"sum_hessian":[4.09E2,1.14E2,2.95E2,7.4E1,4E1,6.8E1,2.27E2,1.7E1,2.3E1,2.9E1,3.9E1,7.2E1,1.55E2,1E0,1.6E1,2.2E1,1E0,3E0,3.6E1,6.7E1,5E0,9.5E1,6E1],"tree_param":{"num_deleted":"0","num_feature":"117","num_nodes":"23","size_leaf_vector":"1"}},{"base_weights":[-0E0,-2.0155264E-1,8.848543E-2,-2.509096E-1,-8.2241684E-2,2.1408339E-1,4.923569E-2,-1.4048367E-2,-1.0077948E-2,-8.561583E-2,-0E0,1.428629E-1,2.6320767E-1,5.084209E-3,7.267127E-2,-4.342992E-3,-0E0,-0E0,7.35787E-3,1.3370027E-2,-0E0,-1.8171604E-4,3.5786126E-3,-1.6588097E-5,3.874534E-3],"categories":[],"categories_nodes":[],"categories_segments":[],"categories_sizes":[],"default_left":[0,0,0,0,0,0,0,0,0,0,0,0,0,0,0,0,0,0,0,0,0,0,0,0,0],"id":45,"left_children":[1,3,5,7,9,11,13,-1,-1,15,-1,17,19,21,23,-1,-1,-1,-1,-1,-1,-1,-1,-1,-1],"loss_changes":[7.7674828E0,7.292633E-1,1.4518929E0,3.3068657E-2,8.561254E-3,1.7019486E-1,2.3190898E-1,0E0,0E0,8.2328916E-4,0E0,1.8200517E-2,1.7487288E-2,5.5167183E-2,6.0516357E-2,0E0,0E0,0E0,0E0,0E0,0E0,0E0,0E0,0E0,0E0],"parents":[2147483647,0,0,1,1,2,2,3,3,4,4,5,5,6,6,9,9,11,11,12,12,13,13,14,14],"right_children":[2,4,6,8,10,12,14,-1,-1,16,-1,18,20,22,24,-1,-1,-1,-1,-1,-1,-1,-1,-1,-1],"split_conditions":[5.75E0,4.9E0,2.0984736E4,9.525914E0,2.1876519E5,8E0,7.478312E-1,-1.4048367E-2,-1.0077948E-2,1.1939639E6,-0E0,7.5653E0,4.167446E4,7.925E3,-1.7339631E5,-4.342992E-3,-0E0,-0E0,7.35787E-3,1.3370027E-2,-0E0,-1.8171604E-4,3.5786126E-3,-1.6588097E-5,3.874534E-3],"split_indices":[111,111,23,105,30,2,99,0,0,60,0,9,49,33,63,0,0,0,0,0,0,0,0,0,0],"split_type":[0,0,0,0,0,0,0,0,0,0,0,0,0,0,0,0,0,0,0,0,0,0,0,0,0],"sum_hessian":[4.33E2,1.32E2,3.01E2,9.2E1,4E1,7E1,2.31E2,5.3E1,3.9E1,3.8E1,2E0,3.1E1,3.9E1,8.2E1,1.49E2,3.7E1,1E0,1E0,3E1,3.8E1,1E0,7.2E1,1E1,8E0,1.41E2],"tree_param":{"num_deleted":"0","num_feature":"117","num_nodes":"25","size_leaf_vector":"1"}},{"base_weights":[6.0858746E-4,-1.9452864E-1,8.420024E-2,-2.4991985E-1,-9.7520985E-2,1.938816E-1,4.4166822E-2,-1.4734116E-2,-2.115877E-1,-7.028197E-2,-7.3231864E-3,1.3799144E-1,2.4533026E-1,2.4724357E-2,1.22189425E-1,-1.080424E-2,-1.7885829E-3,-3.7815012E-3,-0E0,7.13159E-3,-0E0,5.729601E-3,1.3769719E-2,-5.777216E-4,2.0480235E-3,-0E0,6.5010376E-3],"categories":[],"categories_nodes":[],"categories_segments":[],"categories_sizes":[],"default_left":[0,0,0,0,0,0,0,0,0,0,0,0,0,0,0,0,0,0,0,0,0,0,0,0,0,0,0],"id":46,"left_children":[1,3,5,7,9,11,13,-1,15,17,-1,19,21,23,25,-1,-1,-1,-1,-1,-1,-1,-1,-1,-1,-1,-1],"loss_changes":[7.29674E0,6.609154E-1,1.3463805E0,3.1152248E-2,3.6022395E-2,1.6647887E-1,3.3422038E-1,0E0,6.617546E-3,1.0932758E-2,0E0,1.5306592E-2,9.059501E-2,1.1415086E-1,3.8165152E-2,0E0,0E0,0E0,0E0,0E0,0E0,0E0,0E0,0E0,0E0,0E0,0E0],"parents":[2147483647,0,0,1,1,2,2,3,3,4,4,5,5,6,6,8,8,9,9,11,11,12,12,13,13,14,14],"right_children":[2,4,6,8,10,12,14,-1,16,18,-1,20,22,24,26,-1,-1,-1,-1,-1,-1,-1,-1,-1,-1,-1,-1],"split_conditions":[5.516601E0,-4.11099E-1,3.08574E6,-7.7216E-1,6.29008E5,8E0,1.14593E-1,-1.4734116E-2,3.1873708E6,4.33E0,-7.3231864E-3,4.3060386E3,-1.27296E-1,6.25E0,-3.5278812E-1,-1.080424E-2,-1.7885829E-3,-3.7815012E-3,-0E0,7.13159E-3,-0E0,5.729601E-3,1.3769719E-2,-5.777216E-4,2.0480235E-3,-0E0,6.5010376E-3],"split_indices":[108,114,26,114,24,2,114,0,15,14,0,31,114,111,100,0,0,0,0,0,0,0,0,0,0,0,0],"split_type":[0,0,0,0,0,0,0,0,0,0,0,0,0,0,0,0,0,0,0,0,0,0,0,0,0,0,0],"sum_hessian":[4.46E2,1.33E2,3.13E2,8.3E1,5E1,8.2E1,2.31E2,3.4E1,4.9E1,3.5E1,1.5E1,4.2E1,4E1,1.87E2,4.4E1,4.7E1,2E0,3.2E1,3E0,4E1,2E0,9E0,3.1E1,5.6E1,1.31E2,3E0,4.1E1],"tree_param":{"num_deleted":"0","num_feature":"117","num_nodes":"27","size_leaf_vector":"1"}},{"base_weights":[-3.2383255E-3,-1.8812573E-1,8.141297E-2,-2.3916952E-1,-9.039721E-2,4.476654E-2,2.0221695E-1,-1.3938479E-2,-9.916504E-3,-1.3220054E-1,-6.055901E-2,1.1102364E-3,7.880006E-2,1.7534982E-1,2.2369301E-2,-6.8279277E-3,-0E0,-3.17635E-3,-0E0,-1.4229065E-3,8.955958E-4,2.7102917E-3,5.956986E-3,5.6735473E-3,1.0635772E-2],"categories":[],"categories_nodes":[],"categories_segments":[],"categories_sizes":[],"default_left":[0,0,0,0,0,0,0,0,0,0,0,0,0,0,0,0,0,0,0,0,0,0,0,0,0],"id":47,"left_children":[1,3,5,7,9,11,13,-1,-1,15,17,19,21,23,-1,-1,-1,-1,-1,-1,-1,-1,-1,-1,-1],"loss_changes":[7.068918E0,6.5378094E-1,1.3342025E0,4.5788288E-2,3.633222E-2,3.4702238E-1,3.2695365E-1,0E0,0E0,3.6056638E-3,4.0820614E-3,5.261253E-2,1.0815978E-1,9.58457E-2,0E0,0E0,0E0,0E0,0E0,0E0,0E0,0E0,0E0,0E0,0E0],"parents":[2147483647,0,0,1,1,2,2,3,3,4,4,5,5,6,6,9,9,10,10,11,11,12,12,13,13],"right_children":[2,4,6,8,10,12,14,-1,-1,16,18,20,22,24,-1,-1,-1,-1,-1,-1,-1,-1,-1,-1,-1],"split_conditions":[5.75E0,3.9799E0,7.25E0,-7.50708E-1,5.15E0,-7.8704E-2,4.79795E-1,-1.3938479E-2,-9.916504E-3,5.5598E0,1.8585E0,6.1908E0,1.10737E-1,-1.09658E-1,2.2369301E-2,-6.8279277E-3,-0E0,-3.17635E-3,-0E0,-1.4229065E-3,8.955958E-4,2.7102917E-3,5.956986E-3,5.6735473E-3,1.0635772E-2],"split_indices":[2,6,111,114,111,114,114,0,0,6,116,6,114,114,0,0,0,0,0,0,0,0,0,0,0],"split_type":[0,0,0,0,0,0,0,0,0,0,0,0,0,0,0,0,0,0,0,0,0,0,0,0,0],"sum_hessian":[4.49E2,1.41E2,3.08E2,9.1E1,5E1,2.38E2,7E1,4.2E1,4.9E1,1.8E1,3.2E1,1.06E2,1.32E2,6.5E1,5E0,1.7E1,1E0,3E1,2E0,3.6E1,7E1,8.5E1,4.7E1,2.7E1,3.8E1],"tree_param":{"num_deleted":"0","num_feature":"117","num_nodes":"25","size_leaf_vector":"1"}},{"base_weights":[3.2424382E-3,-1.7707129E-1,7.544842E-2,-2.192887E-1,-7.534623E-2,3.8103044E-2,1.8472101E-1,-1.3154449E-2,-1.7796165E-1,-4.188344E-2,-4.9184286E-3,2.1476906E-2,1.14040285E-1,1.4699371E-1,1.943154E-2,-8.992914E-3,-0E0,-2.3528081E-3,-0E0,-8.1851875E-4,1.8427859E-3,-0E0,6.0905544E-3,5.6343465E-3,8.998649E-3],"categories":[],"categories_nodes":[],"categories_segments":[],"categories_sizes":[],"default_left":[0,0,0,0,0,0,0,0,0,0,0,0,0,0,0,0,0,0,0,0,0,0,0,0,0],"id":48,"left_children":[1,3,5,7,9,11,13,-1,15,17,-1,19,21,23,-1,-1,-1,-1,-1,-1,-1,-1,-1,-1,-1],"loss_changes":[5.562622E0,4.77952E-1,1.2194118E0,6.293678E-2,1.1129677E-2,2.7438405E-1,4.8166966E-1,0E0,2.2614002E-4,2.098292E-3,0E0,1.1382269E-1,4.3634236E-2,2.6258111E-2,0E0,0E0,0E0,0E0,0E0,0E0,0E0,0E0,0E0,0E0,0E0],"parents":[2147483647,0,0,1,1,2,2,3,3,4,4,5,5,6,6,8,8,9,9,11,11,12,12,13,13],"right_children":[2,4,6,8,10,12,14,-1,16,18,-1,20,22,24,-1,-1,-1,-1,-1,-1,-1,-1,-1,-1,-1],"split_conditions":[5.9788E0,-2.97249E-1,7.2274E0,-7.50708E-1,3.3892788E5,1.14593E-1,2.30975E-1,-1.3154449E-2,3.2120578E6,4.33E0,-4.9184286E-3,6.25E0,6.3092E0,-5.9286E-2,1.943154E-2,-8.992914E-3,-0E0,-2.3528081E-3,-0E0,-8.1851875E-4,1.8427859E-3,-0E0,6.0905544E-3,5.6343465E-3,8.998649E-3],"split_indices":[7,114,6,114,24,114,114,0,15,14,0,111,7,114,0,0,0,0,0,0,0,0,0,0,0],"split_type":[0,0,0,0,0,0,0,0,0,0,0,0,0,0,0,0,0,0,0,0,0,0,0,0,0],"sum_hessian":[4.26E2,1.21E2,3.05E2,8.4E1,3.7E1,2.29E2,7.6E1,3.7E1,4.7E1,1.8E1,1.9E1,1.9E2,3.9E1,6.6E1,1E1,4.6E1,1E0,1.5E1,3E0,5.3E1,1.37E2,2E0,3.7E1,3.6E1,3E1],"tree_param":{"num_deleted":"0","num_feature":"117","num_nodes":"25","size_leaf_vector":"1"}},{"base_weights":[2.780941E-3,-1.6681552E-1,7.484489E-2,-2.165581E-1,-7.60973E-2,4.8802666E-2,2.3429966E-1,-1.2283038E-2,-1.7223221E-1,-8.47088E-2,-1.7300755E-2,2.6561517E-2,9.8251134E-2,1.9246013E-1,2.0384718E-2,-8.759941E-3,-0E0,-2.1940027E-3,-4.832104E-3,-1.0179955E-3,-0E0,6.1394746E-4,4.656333E-3,5.95452E-4,5.5025946E-3,7.1178115E-4,9.969026E-3],"categories":[],"categories_nodes":[],"categories_segments":[],"categories_sizes":[],"default_left":[0,0,0,0,0,0,0,0,0,0,0,0,0,0,0,0,0,0,0,0,0,0,0,0,0,0,0],"id":49,"left_children":[1,3,5,7,9,11,13,-1,15,17,19,21,23,25,-1,-1,-1,-1,-1,-1,-1,-1,-1,-1,-1,-1,-1],"loss_changes":[5.417541E0,5.499127E-1,1.2558529E0,2.4260283E-2,1.314351E-2,2.8185254E-1,1.7347407E-1,0E0,8.471489E-3,1.6831756E-3,2.078372E-4,1.6800225E-1,7.0043266E-2,2.1435142E-2,0E0,0E0,0E0,0E0,0E0,0E0,0E0,0E0,0E0,0E0,0E0,0E0,0E0],"parents":[2147483647,0,0,1,1,2,2,3,3,4,4,5,5,6,6,8,8,9,9,10,10,11,11,12,12,13,13],"right_children":[2,4,6,8,10,12,14,-1,16,18,20,22,24,26,-1,-1,-1,-1,-1,-1,-1,-1,-1,-1,-1,-1,-1],"split_conditions":[5.75E0,3.960154E0,8E0,-7.44412E-1,-7.0508E-2,6.539E-3,4.79795E-1,-1.2283038E-2,4.65E0,2.284891E6,4.384172E0,2.15E1,5.120263E0,-2.0798E-1,2.0384718E-2,-8.759941E-3,-0E0,-2.1940027E-3,-4.832104E-3,-1.0179955E-3,-0E0,6.1394746E-4,4.656333E-3,5.95452E-4,5.5025946E-3,7.1178115E-4,9.969026E-3],"split_indices":[111,109,2,114,114,114,114,0,13,56,14,1,104,114,0,0,0,0,0,0,0,0,0,0,0,0,0],"split_type":[0,0,0,0,0,0,0,0,0,0,0,0,0,0,0,0,0,0,0,0,0,0,0,0,0,0,0],"sum_hessian":[4.42E2,1.31E2,3.11E2,8.3E1,4.8E1,2.69E2,4.2E1,4.6E1,3.7E1,4E1,8E0,1.88E2,8.1E1,3.6E1,6E0,3.6E1,1E0,1.2E1,2.8E1,6E0,2E0,1.57E2,3.1E1,1.1E1,7E1,2E0,3.4E1],"tree_param":{"num_deleted":"0","num_feature":"117","num_nodes":"27","size_leaf_vector":"1"}},{"base_weights":[1.2268315E-3,-1.5946893E-1,7.2384745E-2,-1.9940405E-1,-7.656254E-2,3.4348257E-2,1.7204396E-1,-1.1464595E-2,-1.6568953E-1,-7.809947E-2,-0E0,-8.314649E-3,4.9742807E-2,1.3540353E-1,2.5739276E-1,-0E0,-8.396674E-3,-1.97542E-3,-4.551371E-3,-1.227152E-3,9.3732215E-4,-0E0,3.0157573E-3,1.2187043E-3,7.0506535E-3,1.5927037E-2,8.323102E-3],"categories":[],"categories_nodes":[],"categories_segments":[],"categories_sizes":[],"default_left":[0,0,0,0,0,0,0,0,0,0,0,0,0,0,0,0,0,0,0,0,0,0,0,0,0,0,0],"id":50,"left_children":[1,3,5,7,9,11,13,-1,15,17,-1,19,21,23,25,-1,-1,-1,-1,-1,-1,-1,-1,-1,-1,-1,-1],"loss_changes":[4.9998317E0,4.007938E-1,1.1258199E0,1.2191772E-2,4.8348606E-3,1.503607E-1,1.8542743E-1,0E0,6.983876E-3,5.800724E-3,0E0,2.6510913E-2,8.64895E-2,1.8016577E-2,2.6360035E-2,0E0,0E0,0E0,0E0,0E0,0E0,0E0,0E0,0E0,0E0,0E0,0E0],"parents":[2147483647,0,0,1,1,2,2,3,3,4,4,5,5,6,6,8,8,9,9,11,11,12,12,13,13,14,14],"right_children":[2,4,6,8,10,12,14,-1,16,18,-1,20,22,24,26,-1,-1,-1,-1,-1,-1,-1,-1,-1,-1,-1,-1],"split_conditions":[5.75E0,4.094281E0,7.2274E0,3.255588E0,5.99812E0,6.25E0,8.09251E1,-1.1464595E-2,1.5126E5,6.264931E4,-0E0,-1.395E4,-1.8215712E5,1.4581E4,2.7680057E4,-0E0,-8.396674E-3,-1.97542E-3,-4.551371E-3,-1.227152E-3,9.3732215E-4,-0E0,3.0157573E-3,1.2187043E-3,7.0506535E-3,1.5927037E-2,8.323102E-3],"split_indices":[2,110,6,108,12,111,11,0,30,30,0,62,63,68,44,0,0,0,0,0,0,0,0,0,0,0,0],"split_type":[0,0,0,0,0,0,0,0,0,0,0,0,0,0,0,0,0,0,0,0,0,0,0,0,0,0,0],"sum_hessian":[4.36E2,1.33E2,3.03E2,8.8E1,4.5E1,2.21E2,8.2E1,4.2E1,4.6E1,4.4E1,1E0,5.7E1,1.64E2,6E1,2.2E1,1E0,4.5E1,1.4E1,3E1,3.8E1,1.9E1,2.9E1,1.35E2,4E0,5.6E1,1.1E1,1.1E1],"tree_param":{"num_deleted":"0","num_feature":"117","num_nodes":"27","size_leaf_vector":"1"}},{"base_weights":[3.6094626E-4,-1.544917E-1,6.911724E-2,-1.9654554E-1,-7.53871E-2,3.995098E-2,1.8352501E-1,-1.2178807E-2,-8.504817E-3,-8.195834E-2,-1.8143285E-2,1.9995332E-2,8.552184E-2,1.5433148E-1,1.8828483E-2,-4.8973835E-3,-2.437692E-3,-0E0,-9.838949E-4,-1.067123E-4,2.1387597E-3,5.6271567E-3,2.1707206E-3,3.9460952E-3,8.87782E-3],"categories":[],"categories_nodes":[],"categories_segments":[],"categories_sizes":[],"default_left":[0,0,0,0,0,0,0,0,0,0,0,0,0,0,0,0,0,0,0,0,0,0,0,0,0],"id":51,"left_children":[1,3,5,7,9,11,13,-1,-1,15,17,19,21,23,-1,-1,-1,-1,-1,-1,-1,-1,-1,-1,-1],"loss_changes":[4.7507443E0,4.137411E-1,1.0047429E0,2.6666641E-2,7.3109865E-3,2.1417788E-1,2.38204E-1,0E0,0E0,3.383994E-3,7.710769E-5,9.287851E-2,6.371528E-2,5.8416486E-2,0E0,0E0,0E0,0E0,0E0,0E0,0E0,0E0,0E0,0E0,0E0],"parents":[2147483647,0,0,1,1,2,2,3,3,4,4,5,5,6,6,9,9,10,10,11,11,12,12,13,13],"right_children":[2,4,6,8,10,12,14,-1,-1,16,18,20,22,24,-1,-1,-1,-1,-1,-1,-1,-1,-1,-1,-1],"split_conditions":[5.516601E0,4.8351E0,7.5E0,-7.92595E-1,-7.0508E-2,2.1036E-2,4.79795E-1,-1.2178807E-2,-8.504817E-3,1.28942E4,4.9E0,6.4805E0,1.3208E6,-1.27296E-1,1.8828483E-2,-4.8973835E-3,-2.437692E-3,-0E0,-9.838949E-4,-1.067123E-4,2.1387597E-3,5.6271567E-3,2.1707206E-3,3.9460952E-3,8.87782E-3],"split_indices":[108,8,2,114,114,114,114,0,0,49,2,6,84,114,0,0,0,0,0,0,0,0,0,0,0],"split_type":[0,0,0,0,0,0,0,0,0,0,0,0,0,0,0,0,0,0,0,0,0,0,0,0,0],"sum_hessian":[4.45E2,1.36E2,3.09E2,8.7E1,4.9E1,2.48E2,6.1E1,2.7E1,6E1,4.2E1,7E0,1.75E2,7.3E1,5.5E1,6E0,2.5E1,1.7E1,1E0,6E0,8.7E1,8.8E1,4.2E1,3.1E1,1.5E1,4E1],"tree_param":{"num_deleted":"0","num_feature":"117","num_nodes":"25","size_leaf_vector":"1"}},{"base_weights":[2.4758894E-3,-1.4147884E-1,6.656503E-2,-1.8452209E-1,-7.084791E-2,3.154503E-2,1.4824387E-1,-9.305715E-3,-0E0,-1.013857E-1,-5.137419E-2,1.1016063E-2,6.971566E-2,1.1620581E-1,2.4474192E-1,-5.2286456E-3,-0E0,-2.6844377E-3,-0E0,-1.8254918E-3,8.8002736E-4,-2.7780913E-4,3.7762427E-3,-0E0,5.993229E-3,9.647591E-3,1.9580595E-2],"categories":[],"categories_nodes":[],"categories_segments":[],"categories_sizes":[],"default_left":[0,0,0,0,0,0,0,0,0,0,0,0,0,0,0,0,0,0,0,0,0,0,0,0,0,0,0],"id":52,"left_children":[1,3,5,7,9,11,13,-1,-1,15,17,19,21,23,25,-1,-1,-1,-1,-1,-1,-1,-1,-1,-1,-1,-1],"loss_changes":[4.0797896E0,3.7485504E-1,8.5548556E-1,1.4341354E-2,1.162836E-2,1.6120082E-1,2.1680129E-1,0E0,0E0,8.803308E-4,3.2325163E-3,4.3814085E-2,3.977436E-2,1.8221974E-2,2.5716066E-2,0E0,0E0,0E0,0E0,0E0,0E0,0E0,0E0,0E0,0E0,0E0,0E0],"parents":[2147483647,0,0,1,1,2,2,3,3,4,4,5,5,6,6,9,9,10,10,11,11,12,12,13,13,14,14],"right_children":[2,4,6,8,10,12,14,-1,-1,16,18,20,22,24,26,-1,-1,-1,-1,-1,-1,-1,-1,-1,-1,-1,-1],"split_conditions":[5.617165E0,3.9799E0,2.15E1,1.821175E4,5.15E0,8.76076E1,8.09251E1,-9.305715E-3,-0E0,5.5598E0,2.1876519E5,6.1081E0,-1.8215712E5,1.4581E4,1.34231E1,-5.2286456E-3,-0E0,-2.6844377E-3,-0E0,-1.8254918E-3,8.8002736E-4,-2.7780913E-4,3.7762427E-3,-0E0,5.993229E-3,9.647591E-3,1.9580595E-2],"split_indices":[108,6,1,80,111,11,11,0,0,6,30,6,63,68,17,0,0,0,0,0,0,0,0,0,0,0,0],"split_type":[0,0,0,0,0,0,0,0,0,0,0,0,0,0,0,0,0,0,0,0,0,0,0,0,0,0,0],"sum_hessian":[4.41E2,1.35E2,3.06E2,8.2E1,5.3E1,2.16E2,9E1,8.1E1,1E0,1.7E1,3.6E1,1.43E2,7.3E1,7E1,2E1,1.6E1,1E0,3.4E1,2E0,1.5E1,1.28E2,4E0,6.9E1,3E0,6.7E1,1.7E1,3E0],"tree_param":{"num_deleted":"0","num_feature":"117","num_nodes":"27","size_leaf_vector":"1"}},{"base_weights":[-2.90258E-4,-1.3857499E-1,5.8584217E-2,-1.768848E-1,-7.504883E-2,1.6262263E-1,3.5751574E-2,-8.917245E-3,-0E0,-4.1541286E-2,-9.674304E-2,1.4066504E-1,1.8846314E-2,2.2945184E-2,9.8971315E-2,-2.1670614E-3,-0E0,-5.0850883E-3,-0E0,3.3692408E-3,8.066486E-3,-7.036983E-4,1.8276792E-3,-0E0,5.297046E-3],"categories":[],"categories_nodes":[],"categories_segments":[],"categories_sizes":[],"default_left":[0,0,0,0,0,0,0,0,0,0,0,0,0,0,0,0,0,0,0,0,0,0,0,0,0],"id":53,"left_children":[1,3,5,7,9,11,13,-1,-1,15,17,19,-1,21,23,-1,-1,-1,-1,-1,-1,-1,-1,-1,-1],"loss_changes":[3.5657854E0,2.8034306E-1,7.0124304E-1,9.686708E-3,1.9952565E-2,1.4932251E-1,1.9037047E-1,0E0,0E0,1.788348E-3,7.850498E-3,4.348731E-2,0E0,1.1006572E-1,3.610754E-2,0E0,0E0,0E0,0E0,0E0,0E0,0E0,0E0,0E0,0E0],"parents":[2147483647,0,0,1,1,2,2,3,3,4,4,5,5,6,6,9,9,10,10,11,11,13,13,14,14],"right_children":[2,4,6,8,10,12,14,-1,-1,16,18,20,-1,22,24,-1,-1,-1,-1,-1,-1,-1,-1,-1,-1],"split_conditions":[5.9788E0,-4.59523E-1,2.1151125E6,7.319E0,5.95601E-1,3.9328426E4,1.4815E-1,-8.917245E-3,-0E0,6.8613E0,7.63585E5,-1.29437E-1,1.8846314E-2,6.25E0,6.3092E0,-2.1670614E-3,-0E0,-5.0850883E-3,-0E0,3.3692408E-3,8.066486E-3,-7.036983E-4,1.8276792E-3,-0E0,5.297046E-3],"split_indices":[7,114,27,9,101,19,114,0,0,9,39,114,0,111,7,0,0,0,0,0,0,0,0,0,0],"split_type":[0,0,0,0,0,0,0,0,0,0,0,0,0,0,0,0,0,0,0,0,0,0,0,0,0],"sum_hessian":[4.35E2,1.3E2,3.05E2,7.9E1,5.1E1,5.3E1,2.52E2,7.8E1,1E0,2.3E1,2.8E1,5E1,3E0,2.12E2,4E1,2.2E1,1E0,2.6E1,2E0,1.3E1,3.7E1,5.5E1,1.57E2,2E0,3.8E1],"tree_param":{"num_deleted":"0","num_feature":"117","num_nodes":"25","size_leaf_vector":"1"}},{"base_weights":[2.6078506E-3,-1.2581123E-1,5.8846463E-2,-1.5974854E-1,-5.2164435E-2,2.6955102E-2,1.3189453E-1,-9.682777E-3,-1.298972E-1,-5.4755256E-2,-0E0,1.3223086E-2,8.523199E-2,1.1338632E-1,1.8234955E-2,-0E0,-6.569957E-3,-2.7858089E-3,-0E0,-5.0596416E-4,1.2661034E-3,-0E0,4.456091E-3,7.3632733E-3,4.19795E-3],"categories":[],"categories_nodes":[],"categories_segments":[],"categories_sizes":[],"default_left":[0,0,0,0,0,0,0,0,0,0,0,0,0,0,0,0,0,0,0,0,0,0,0,0,0],"id":54,"left_children":[1,3,5,7,9,11,13,-1,15,17,-1,19,21,23,-1,-1,-1,-1,-1,-1,-1,-1,-1,-1,-1],"loss_changes":[3.2073243E0,3.0789137E-1,7.027365E-1,3.459668E-2,3.4710243E-3,1.6348395E-1,3.115574E-1,0E0,3.5341382E-3,1.3541728E-3,0E0,5.2329496E-2,1.9185513E-2,5.224693E-2,0E0,0E0,0E0,0E0,0E0,0E0,0E0,0E0,0E0,0E0,0E0],"parents":[2147483647,0,0,1,1,2,2,3,3,4,4,5,5,6,6,8,8,9,9,11,11,12,12,13,13],"right_children":[2,4,6,8,10,12,14,-1,16,18,-1,20,22,24,-1,-1,-1,-1,-1,-1,-1,-1,-1,-1,-1],"split_conditions":[5.617165E0,4.9E0,2.15E1,-7.44412E-1,-4.1337E4,1.4815E-1,4.79795E-1,-9.682777E-3,1.5126E5,1.1939639E6,-0E0,5.998731E0,6.3092E0,1.211E2,1.8234955E-2,-0E0,-6.569957E-3,-2.7858089E-3,-0E0,-5.0596416E-4,1.2661034E-3,-0E0,4.456091E-3,7.3632733E-3,4.19795E-3],"split_indices":[108,2,1,114,63,114,114,0,30,60,0,109,7,74,0,0,0,0,0,0,0,0,0,0,0],"split_type":[0,0,0,0,0,0,0,0,0,0,0,0,0,0,0,0,0,0,0,0,0,0,0,0,0],"sum_hessian":[4.43E2,1.34E2,3.09E2,9E1,4.4E1,2.17E2,9.2E1,3.8E1,5.2E1,4.1E1,3E0,1.78E2,3.9E1,8.7E1,5E0,1E0,5.1E1,4E1,1E0,5.8E1,1.2E2,1E0,3.8E1,3.7E1,5E1],"tree_param":{"num_deleted":"0","num_feature":"117","num_nodes":"25","size_leaf_vector":"1"}},{"base_weights":[1.4565793E-3,-1.257007E-1,5.9237085E-2,-1.6983505E-1,-7.183338E-2,2.7209792E-2,1.3061203E-1,-1.0115663E-2,-7.1454155E-3,-4.2764053E-2,-5.0997077E-3,1.4940774E-2,8.146924E-2,1.1286537E-1,1.747516E-2,-2.2427074E-3,-0E0,-6.314151E-5,1.52419E-3,-0E0,4.2789346E-3,3.2847316E-3,6.5127313E-3],"categories":[],"categories_nodes":[],"categories_segments":[],"categories_sizes":[],"default_left":[0,0,0,0,0,0,0,0,0,0,0,0,0,0,0,0,0,0,0,0,0,0,0],"id":55,"left_children":[1,3,5,7,9,11,13,-1,-1,15,-1,17,19,21,-1,-1,-1,-1,-1,-1,-1,-1,-1],"loss_changes":[3.204184E0,2.8695965E-1,6.687336E-1,4.0626526E-4,3.727472E-2,1.2894093E-1,2.7169836E-1,0E0,0E0,2.568908E-3,0E0,4.678303E-2,1.8075868E-2,4.3210864E-2,0E0,0E0,0E0,0E0,0E0,0E0,0E0,0E0,0E0],"parents":[2147483647,0,0,1,1,2,2,3,3,4,4,5,5,6,6,9,9,11,11,12,12,13,13],"right_children":[2,4,6,8,10,12,14,-1,-1,16,-1,18,20,22,-1,-1,-1,-1,-1,-1,-1,-1,-1],"split_conditions":[5.516601E0,-5.66763E-1,2.15E1,-7.92595E-1,7.08273E5,1.4815E-1,4.79795E-1,-1.0115663E-2,-7.1454155E-3,2.1876519E5,-5.0997077E-3,-9E-2,6.3092E0,-1.09658E-1,1.747516E-2,-2.2427074E-3,-0E0,-6.314151E-5,1.52419E-3,-0E0,4.2789346E-3,3.2847316E-3,6.5127313E-3],"split_indices":[108,114,1,114,24,114,114,0,0,30,0,114,7,114,0,0,0,0,0,0,0,0,0],"split_type":[0,0,0,0,0,0,0,0,0,0,0,0,0,0,0,0,0,0,0,0,0,0,0],"sum_hessian":[4.35E2,1.35E2,3E2,7.2E1,6.3E1,2.09E2,9.1E1,2.8E1,4.4E1,3.5E1,2.8E1,1.73E2,3.6E1,8.6E1,5E0,3.3E1,2E0,8.2E1,9.1E1,1E0,3.5E1,2.6E1,6E1],"tree_param":{"num_deleted":"0","num_feature":"117","num_nodes":"23","size_leaf_vector":"1"}},{"base_weights":[-6.5009005E-4,-1.1509993E-1,5.541082E-2,-5.671509E-2,-7.6886676E-3,3.791615E-2,1.6752647E-1,-5.96468E-2,-0E0,1.8818805E-2,6.371221E-2,1.3983662E-1,1.6800432E-2,-1.3204732E-4,-3.1647284E-3,-1.536519E-4,1.8694286E-3,3.3454131E-3,-0E0,7.187369E-3,-0E0],"categories":[],"categories_nodes":[],"categories_segments":[],"categories_sizes":[],"default_left":[0,0,0,0,0,0,0,0,0,0,0,0,0,0,0,0,0,0,0,0,0],"id":56,"left_children":[1,3,5,7,-1,9,11,13,-1,15,17,19,-1,-1,-1,-1,-1,-1,-1,-1,-1],"loss_changes":[2.707135E0,2.8408372E-1,5.262262E-1,9.11288E-3,0E0,1.1173642E-1,7.804322E-2,4.676193E-3,0E0,6.249278E-2,2.4674982E-2,1.704359E-2,0E0,0E0,0E0,0E0,0E0,0E0,0E0,0E0,0E0],"parents":[2147483647,0,0,1,1,2,2,3,3,5,5,6,6,7,7,9,9,10,10,11,11],"right_children":[2,4,6,8,-1,10,12,14,-1,16,18,20,-1,-1,-1,-1,-1,-1,-1,-1,-1],"split_conditions":[5.9E0,8.29153E1,8E0,-4.369363E4,-7.6886676E-3,6.461329E0,3.9328426E4,3.7656887E4,-0E0,1.0024396E2,1.2668145E5,1.41241E1,1.6800432E-2,-1.3204732E-4,-3.1647284E-3,-1.536519E-4,1.8694286E-3,3.3454131E-3,-0E0,7.187369E-3,-0E0],"split_indices":[2,11,2,62,0,110,19,30,0,38,44,17,0,0,0,0,0,0,0,0,0],"split_type":[0,0,0,0,0,0,0,0,0,0,0,0,0,0,0,0,0,0,0,0,0],"sum_hessian":[4.19E2,1.38E2,2.81E2,5.7E1,8.1E1,2.45E2,3.6E1,5.4E1,3E0,1.44E2,1.01E2,3.3E1,3E0,5E0,4.9E1,6.4E1,8E1,9.7E1,4E0,3.2E1,1E0],"tree_param":{"num_deleted":"0","num_feature":"117","num_nodes":"21","size_leaf_vector":"1"}},{"base_weights":[8.83818E-4,-1.0941415E-1,5.506017E-2,-1.4596081E-1,-4.7591537E-2,4.440778E-2,2.4427757E-1,-9.315795E-3,-1.23768814E-1,-5.171633E-2,-0E0,9.752612E-2,2.3024743E-2,7.2454684E-3,1.614271E-2,-6.2516094E-3,-0E0,-2.7891188E-3,-1.66143E-4,3.1033813E-3,5.8524995E-3,9.415489E-5,2.5301266E-3],"categories":[],"categories_nodes":[],"categories_segments":[],"categories_sizes":[],"default_left":[0,0,0,0,0,0,0,0,0,0,0,0,0,0,0,0,0,0,0,0,0,0,0],"id":57,"left_children":[1,3,5,7,9,11,13,-1,15,17,-1,19,21,-1,-1,-1,-1,-1,-1,-1,-1,-1,-1],"loss_changes":[2.6178763E0,2.990532E-1,5.5489063E-1,2.5636315E-2,1.2240663E-2,3.0486804E-1,2.3559272E-2,0E0,3.8554072E-3,4.136145E-3,0E0,2.9513896E-2,1.1301324E-1,0E0,0E0,0E0,0E0,0E0,0E0,0E0,0E0,0E0,0E0],"parents":[2147483647,0,0,1,1,2,2,3,3,4,4,5,5,6,6,8,8,9,9,11,11,12,12],"right_children":[2,4,6,8,10,12,14,-1,16,18,-1,20,22,-1,-1,-1,-1,-1,-1,-1,-1,-1,-1],"split_conditions":[5.9E0,-3.20294E-1,2.9E-1,-8E-1,-4.369363E4,3.1432375E6,4.79795E-1,-9.315795E-3,3.1985108E6,6.370584E1,-0E0,-1.09658E-1,-5.9286E-2,7.2454684E-3,1.614271E-2,-6.2516094E-3,-0E0,-2.7891188E-3,-1.66143E-4,3.1033813E-3,5.8524995E-3,9.415489E-5,2.5301266E-3],"split_indices":[2,114,114,114,62,26,114,0,15,93,0,114,114,0,0,0,0,0,0,0,0,0,0],"split_type":[0,0,0,0,0,0,0,0,0,0,0,0,0,0,0,0,0,0,0,0,0,0,0],"sum_hessian":[4.37E2,1.43E2,2.94E2,8.8E1,5.5E1,2.8E2,1.4E1,2.7E1,6.1E1,5.1E1,4E0,7.8E1,2.02E2,8E0,6E0,6E1,1E0,4.5E1,6E0,3.1E1,4.7E1,1.17E2,8.5E1],"tree_param":{"num_deleted":"0","num_feature":"117","num_nodes":"23","size_leaf_vector":"1"}},{"base_weights":[3.9940467E-4,-1.1598205E-1,4.408167E-2,-1.4237837E-1,-5.9109654E-2,2.8035011E-2,1.4495441E-1,-8.505437E-3,-1.1721577E-1,-6.458747E-2,-0E0,-1.2531215E-2,4.15128E-2,1.12514146E-1,1.5208851E-2,-5.9267352E-3,-0E0,-0E0,-3.3564277E-3,-1.029761E-3,1.2746569E-3,1.353114E-4,2.7439478E-3,-0E0,5.9102126E-3],"categories":[],"categories_nodes":[],"categories_segments":[],"categories_sizes":[],"default_left":[0,0,0,0,0,0,0,0,0,0,0,0,0,0,0,0,0,0,0,0,0,0,0,0,0],"id":58,"left_children":[1,3,5,7,9,11,13,-1,15,17,-1,19,21,23,-1,-1,-1,-1,-1,-1,-1,-1,-1,-1,-1],"loss_changes":[2.183959E0,1.4707816E-1,4.8689973E-1,5.754113E-3,1.0417417E-2,1.526792E-1,1.410461E-1,0E0,2.527833E-4,3.0367672E-3,0E0,2.0579359E-2,1.0146278E-1,2.0629555E-2,0E0,0E0,0E0,0E0,0E0,0E0,0E0,0E0,0E0,0E0,0E0],"parents":[2147483647,0,0,1,1,2,2,3,3,4,4,5,5,6,6,8,8,9,9,11,11,12,12,13,13],"right_children":[2,4,6,8,10,12,14,-1,16,18,-1,20,22,24,-1,-1,-1,-1,-1,-1,-1,-1,-1,-1,-1],"split_conditions":[5.4E0,-4.59523E-1,8E0,-7.82348E-1,-7.0508E-2,6.25E0,4.79795E-1,-8.505437E-3,7.319E0,3.165181E4,-0E0,4.207412E4,-1.35926E-1,-3.20294E-1,1.5208851E-2,-5.9267352E-3,-0E0,-0E0,-3.3564277E-3,-1.029761E-3,1.2746569E-3,1.353114E-4,2.7439478E-3,-0E0,5.9102126E-3],"split_indices":[111,114,2,114,114,2,114,0,9,57,0,62,114,114,0,0,0,0,0,0,0,0,0,0,0],"split_type":[0,0,0,0,0,0,0,0,0,0,0,0,0,0,0,0,0,0,0,0,0,0,0,0,0],"sum_hessian":[4.29E2,1.16E2,3.13E2,7.7E1,3.9E1,2.72E2,4.1E1,3.2E1,4.5E1,3.5E1,4E0,6.6E1,2.06E2,3.6E1,5E0,4.4E1,1E0,2E0,3.3E1,5.7E1,9E0,5.5E1,1.51E2,2E0,3.4E1],"tree_param":{"num_deleted":"0","num_feature":"117","num_nodes":"25","size_leaf_vector":"1"}},{"base_weights":[1.8588224E-3,-9.6295476E-2,4.5518324E-2,-1.25816E-1,-4.426586E-2,3.0635491E-2,1.4482208E-1,-6.381447E-3,-1.9310291E-5,-6.356722E-2,-2.9236693E-2,1.569821E-2,6.863561E-2,1.1946649E-1,1.5590839E-2,-3.36932E-3,-0E0,-0E0,-1.548425E-3,2.3272051E-4,2.2630873E-3,-0E0,3.973455E-3,-0E0,6.286646E-3],"categories":[],"categories_nodes":[],"categories_segments":[],"categories_sizes":[],"default_left":[0,0,0,0,0,0,0,0,0,0,0,0,0,0,0,0,0,0,0,0,0,0,0,0,0],"id":59,"left_children":[1,3,5,7,9,11,13,-1,-1,15,17,19,21,23,-1,-1,-1,-1,-1,-1,-1,-1,-1,-1,-1],"loss_changes":[1.8977234E0,1.8631053E-1,4.3321723E-1,6.477833E-3,3.945455E-3,1.4374614E-1,8.475566E-2,0E0,0E0,4.2071193E-4,1.6268715E-3,5.9116997E-2,5.5578917E-2,2.3697317E-2,0E0,0E0,0E0,0E0,0E0,0E0,0E0,0E0,0E0,0E0,0E0],"parents":[2147483647,0,0,1,1,2,2,3,3,4,4,5,5,6,6,9,9,10,10,11,11,12,12,13,13],"right_children":[2,4,6,8,10,12,14,-1,-1,16,18,20,22,24,-1,-1,-1,-1,-1,-1,-1,-1,-1,-1,-1],"split_conditions":[5.9E0,-3.10533E-1,7E0,3.1985108E6,-2.81286E5,2.7019E-2,5.9E-1,-6.381447E-3,-1.9310291E-5,1.4321486E6,-2.68611E5,7.7296E0,5.120263E0,-3.20294E-1,1.5590839E-2,-3.36932E-3,-0E0,-0E0,-1.548425E-3,2.3272051E-4,2.2630873E-3,-0E0,3.973455E-3,-0E0,6.286646E-3],"split_indices":[113,114,3,15,63,114,114,0,0,29,63,9,104,114,0,0,0,0,0,0,0,0,0,0,0],"split_type":[0,0,0,0,0,0,0,0,0,0,0,0,0,0,0,0,0,0,0,0,0,0,0,0,0],"sum_hessian":[4.42E2,1.35E2,3.07E2,8.4E1,5.1E1,2.69E2,3.8E1,8.2E1,2E0,1.8E1,3.3E1,1.96E2,7.3E1,3.5E1,3E0,1.6E1,2E0,2E0,3.1E1,1.46E2,5E1,1E1,6.3E1,2E0,3.3E1],"tree_param":{"num_deleted":"0","num_feature":"117","num_nodes":"25","size_leaf_vector":"1"}},{"base_weights":[2.7580834E-6,-1.04496695E-1,3.8812146E-2,-1.3255842E-1,-5.966244E-2,3.0225694E-2,2.1902557E-1,-8.173264E-3,-5.558528E-3,-8.011289E-2,-3.632826E-2,1.2344627E-2,7.857373E-2,3.8321202E-3,1.29157305E-2,-0E0,-4.113032E-3,-2.0225723E-3,-0E0,-2.9615854E-4,1.4910285E-3,1.7581156E-3,4.3924036E-3],"categories":[],"categories_nodes":[],"categories_segments":[],"categories_sizes":[],"default_left":[0,0,0,0,0,0,0,0,0,0,0,0,0,0,0,0,0,0,0,0,0,0,0],"id":60,"left_children":[1,3,5,7,9,11,13,-1,-1,15,17,19,21,-1,-1,-1,-1,-1,-1,-1,-1,-1,-1],"loss_changes":[1.7859894E0,1.2258601E-1,4.6826294E-1,1.2971163E-3,8.828044E-3,2.579377E-1,2.5023818E-2,0E0,0E0,1.2541562E-3,3.6386177E-3,7.567394E-2,1.7624259E-2,0E0,0E0,0E0,0E0,0E0,0E0,0E0,0E0,0E0,0E0],"parents":[2147483647,0,0,1,1,2,2,3,3,4,4,5,5,6,6,9,9,10,10,11,11,12,12],"right_children":[2,4,6,8,10,12,14,-1,-1,16,18,20,22,-1,-1,-1,-1,-1,-1,-1,-1,-1,-1],"split_conditions":[5.4E0,-5.58266E-1,2.9E-1,-8.06847E-1,4.9E0,2.15E1,3.2677E4,-8.173264E-3,-5.558528E-3,7.45684E1,4.3E0,-7.4977E-2,3.789302E4,3.8321202E-3,1.29157305E-2,-0E0,-4.113032E-3,-2.0225723E-3,-0E0,-2.9615854E-4,1.4910285E-3,1.7581156E-3,4.3924036E-3],"split_indices":[2,114,114,114,111,1,52,0,0,10,14,114,54,0,0,0,0,0,0,0,0,0,0],"split_type":[0,0,0,0,0,0,0,0,0,0,0,0,0,0,0,0,0,0,0,0,0,0,0],"sum_hessian":[4.4E2,1.18E2,3.22E2,7E1,4.8E1,3.09E2,1.3E1,2.4E1,4.6E1,2.2E1,2.6E1,2.28E2,8.1E1,4E0,9E0,1E0,2.1E1,2.3E1,3E0,1.09E2,1.19E2,1.7E1,6.4E1],"tree_param":{"num_deleted":"0","num_feature":"117","num_nodes":"23","size_leaf_vector":"1"}},{"base_weights":[1.6270844E-3,-8.866526E-2,4.6194382E-2,-1.12624146E-1,-3.0165892E-2,2.063509E-2,9.954072E-2,-6.700424E-3,-8.570426E-2,-3.385137E-2,-0E0,7.916574E-3,4.107205E-2,8.959033E-2,1.3925712E-2,-4.4377362E-3,-1.7176746E-4,-1.7792996E-3,-0E0,-0E0,2.3676665E-3,2.6456842E-3,-0E0,3.2114976E-3,5.518865E-3],"categories":[],"categories_nodes":[],"categories_segments":[],"categories_sizes":[],"default_left":[0,0,0,0,0,0,0,0,0,0,0,0,0,0,0,0,0,0,0,0,0,0,0,0,0],"id":61,"left_children":[1,3,5,7,9,11,13,-1,15,17,-1,19,21,23,-1,-1,-1,-1,-1,-1,-1,-1,-1,-1,-1],"loss_changes":[1.7825189E0,1.8695414E-1,3.922497E-1,2.5261402E-2,4.8874654E-3,4.780124E-2,1.0741866E-1,0E0,3.0239522E-3,2.2851713E-3,0E0,4.3426383E-2,3.307341E-2,2.3948908E-2,0E0,0E0,0E0,0E0,0E0,0E0,0E0,0E0,0E0,0E0,0E0],"parents":[2147483647,0,0,1,1,2,2,3,3,4,4,5,5,6,6,8,8,9,9,11,11,12,12,13,13],"right_children":[2,4,6,8,10,12,14,-1,16,18,-1,20,22,24,-1,-1,-1,-1,-1,-1,-1,-1,-1,-1,-1],"split_conditions":[5.9E0,5.15E0,2.15E1,3.280766E0,-4.369363E4,1.97793E4,3.9328426E4,-6.700424E-3,5.1502312E5,2.0258427E5,-0E0,8.52858E5,9.98186E1,4.98235E5,1.3925712E-2,-4.4377362E-3,-1.7176746E-4,-1.7792996E-3,-0E0,-0E0,2.3676665E-3,2.6456842E-3,-0E0,3.2114976E-3,5.518865E-3],"split_indices":[2,111,1,108,62,62,19,0,71,30,0,37,103,61,0,0,0,0,0,0,0,0,0,0,0],"split_type":[0,0,0,0,0,0,0,0,0,0,0,0,0,0,0,0,0,0,0,0,0,0,0,0,0],"sum_hessian":[4.42E2,1.45E2,2.97E2,1.01E2,4.4E1,2.03E2,9.4E1,5.2E1,4.9E1,3.9E1,5E0,1.29E2,7.4E1,9.1E1,3E0,4.6E1,3E0,3.7E1,2E0,1.07E2,2.2E1,5.6E1,1.8E1,4.5E1,4.6E1],"tree_param":{"num_deleted":"0","num_feature":"117","num_nodes":"25","size_leaf_vector":"1"}},{"base_weights":[-3.187694E-3,-8.202067E-2,4.1713502E-2,-1.1023352E-1,-3.4490343E-2,3.334277E-2,2.0144656E-1,-6.6815475E-3,-9.006925E-2,-4.1917723E-2,-0E0,7.427205E-2,1.6572934E-2,2.4082472E-3,1.1630728E-2,-4.599249E-3,-0E0,-2.2257736E-3,-0E0,-3.4710407E-4,1.2107122E-3,1.6518784E-3,4.6114274E-3,3.346376E-4,2.6172302E-3],"categories":[],"categories_nodes":[],"categories_segments":[],"categories_sizes":[],"default_left":[0,0,0,0,0,0,0,0,0,0,0,0,0,0,0,0,0,0,0,0,0,0,0,0,0],"id":62,"left_children":[1,3,5,7,9,11,13,-1,15,17,19,21,23,-1,-1,-1,-1,-1,-1,-1,-1,-1,-1,-1,-1],"loss_changes":[1.5472194E0,1.9493926E-1,3.40176E-1,1.1829615E-2,1.7614774E-2,1.7157462E-1,2.282542E-2,0E0,3.3059418E-3,1.7675161E-3,2.7308583E-3,3.9958388E-2,6.125118E-2,0E0,0E0,0E0,0E0,0E0,0E0,0E0,0E0,0E0,0E0,0E0,0E0],"parents":[2147483647,0,0,1,1,2,2,3,3,4,4,5,5,6,6,8,8,9,9,10,10,11,11,12,12],"right_children":[2,4,6,8,10,12,14,-1,16,18,20,22,24,-1,-1,-1,-1,-1,-1,-1,-1,-1,-1,-1,-1],"split_conditions":[6.2239E0,-3.04733E-1,2.9E-1,-7.50708E-1,-1.04515E5,2.249978E6,3.2677E4,-6.6815475E-3,3.2042068E6,1.14123276E2,4.45E0,-1.22876E-1,1E-1,2.4082472E-3,1.1630728E-2,-4.599249E-3,-0E0,-2.2257736E-3,-0E0,-3.4710407E-4,1.2107122E-3,1.6518784E-3,4.6114274E-3,3.346376E-4,2.6172302E-3],"split_indices":[7,114,114,114,63,27,52,0,15,86,12,114,114,0,0,0,0,0,0,0,0,0,0,0,0],"split_type":[0,0,0,0,0,0,0,0,0,0,0,0,0,0,0,0,0,0,0,0,0,0,0,0,0],"sum_hessian":[4.34E2,1.58E2,2.76E2,9.7E1,6.1E1,2.64E2,1.2E1,4E1,5.7E1,5.1E1,1E1,7.4E1,1.9E2,3E0,9E0,5.5E1,2E0,4.6E1,5E0,7E0,3E0,2.5E1,4.9E1,1.52E2,3.8E1],"tree_param":{"num_deleted":"0","num_feature":"117","num_nodes":"25","size_leaf_vector":"1"}},{"base_weights":[4.5241913E-4,-7.122287E-2,4.266992E-2,-1.0124855E-1,-2.7640369E-2,3.511593E-2,1.8393718E-1,-6.0909563E-3,-7.540863E-2,-3.3292864E-2,-0E0,1.9173974E-2,7.053624E-2,1.4030265E-2,5.8438107E-3,-3.8265237E-3,-0E0,-1.713381E-3,-0E0,4.95139E-4,2.775135E-3,3.6314575E-3,-0E0],"categories":[],"categories_nodes":[],"categories_segments":[],"categories_sizes":[],"default_left":[0,0,0,0,0,0,0,0,0,0,0,0,0,0,0,0,0,0,0,0,0,0,0],"id":63,"left_children":[1,3,5,7,9,11,13,-1,15,17,-1,19,21,-1,-1,-1,-1,-1,-1,-1,-1,-1,-1],"loss_changes":[1.3104209E0,1.9368756E-1,2.6402944E-1,2.0524442E-2,1.0119904E-2,1.376198E-1,1.1730313E-2,0E0,1.9838512E-3,1.339335E-3,0E0,5.488299E-2,1.3120949E-2,0E0,0E0,0E0,0E0,0E0,0E0,0E0,0E0,0E0,0E0],"parents":[2147483647,0,0,1,1,2,2,3,3,4,4,5,5,6,6,8,8,9,9,11,11,12,12],"right_children":[2,4,6,8,10,12,14,-1,16,18,-1,20,22,-1,-1,-1,-1,-1,-1,-1,-1,-1,-1],"split_conditions":[6.3438E0,4.686285E0,2.9E-1,-7.0457E-1,4.56853E0,2.15E1,2.8903373E4,-6.0909563E-3,5.1167E0,4.087866E4,-0E0,1E-1,4.3060386E3,1.4030265E-2,5.8438107E-3,-3.8265237E-3,-0E0,-1.713381E-3,-0E0,4.95139E-4,2.775135E-3,3.6314575E-3,-0E0],"split_indices":[8,108,114,114,14,1,55,0,6,49,0,114,31,0,0,0,0,0,0,0,0,0,0],"split_type":[0,0,0,0,0,0,0,0,0,0,0,0,0,0,0,0,0,0,0,0,0,0,0],"sum_hessian":[4.32E2,1.59E2,2.73E2,9.2E1,6.7E1,2.61E2,1.2E1,4.7E1,4.5E1,5.5E1,1.2E1,1.83E2,7.8E1,3E0,9E0,4.4E1,1E0,5.3E1,2E0,1.49E2,3.4E1,7.6E1,2E0],"tree_param":{"num_deleted":"0","num_feature":"117","num_nodes":"23","size_leaf_vector":"1"}},{"base_weights":[-1.6297566E-3,-9.85583E-2,2.9141497E-2,-7.4437647E-3,-8.502012E-2,1.0637565E-2,8.625716E-2,-8.676499E-2,-6.251214E-5,-9.249261E-3,3.2180607E-2,7.055555E-2,9.645971E-3,-0E0,-4.399684E-3,-1.0865194E-3,6.1917555E-4,-0E0,2.1048363E-3,1.8929044E-3,4.3918565E-3],"categories":[],"categories_nodes":[],"categories_segments":[],"categories_sizes":[],"default_left":[0,0,0,0,0,0,0,0,0,0,0,0,0,0,0,0,0,0,0,0,0],"id":64,"left_children":[1,3,5,-1,7,9,11,13,-1,15,17,19,-1,-1,-1,-1,-1,-1,-1,-1,-1],"loss_changes":[1.3340938E0,3.7522793E-2,3.4555626E-1,0E0,4.098952E-3,1.12695426E-1,9.5697224E-2,2.9803514E-3,0E0,3.684397E-2,4.1412473E-2,2.5354773E-2,0E0,0E0,0E0,0E0,0E0,0E0,0E0,0E0,0E0],"parents":[2147483647,0,0,1,1,2,2,4,4,5,5,6,6,7,7,9,9,10,10,11,11],"right_children":[2,4,6,-1,8,10,12,14,-1,16,18,20,-1,-1,-1,-1,-1,-1,-1,-1,-1],"split_conditions":[5.15E0,-8.12183E-1,7.2274E0,-7.4437647E-3,5.1502312E5,-7.4977E-2,3.4992E-1,1.237355E6,-6.251214E-5,6E0,6.25E0,-1.09658E-1,9.645971E-3,-0E0,-4.399684E-3,-1.0865194E-3,6.1917555E-4,-0E0,2.1048363E-3,1.8929044E-3,4.3918565E-3],"split_indices":[111,114,6,0,71,114,114,25,0,3,2,114,0,0,0,0,0,0,0,0,0],"split_type":[0,0,0,0,0,0,0,0,0,0,0,0,0,0,0,0,0,0,0,0,0],"sum_hessian":[4.43E2,1.07E2,3.36E2,1.9E1,8.8E1,2.56E2,8E1,8.5E1,3E0,1.31E2,1.25E2,7.2E1,8E0,2E0,8.3E1,8.6E1,4.5E1,2.9E1,9.6E1,2.8E1,4.4E1],"tree_param":{"num_deleted":"0","num_feature":"117","num_nodes":"21","size_leaf_vector":"1"}},{"base_weights":[-9.0808107E-4,-7.334552E-2,3.5718296E-2,-9.74904E-2,-3.1333685E-2,2.2903765E-2,1.08458765E-1,-6.309668E-3,-8.1398584E-2,1.1702442E-3,-3.5567902E-2,1.4966787E-2,5.8253773E-2,8.7810956E-2,